{"version": "0.7.0", "architecture": "SlimmableContainer", "config": {"submodels": [{"max_value": 0.333333, "model": {"version": "0.7.0", "architecture": "ParametricWaveNet", "config": {"layers": 3, "head_scale": 0.08916065841913223, "parametric": {"type": "film", "schema_version": 1, "condition_size": 2, "head_mode": "skip", "film_layers": ["layer_0", "layer_1", "layer_2", "layer_3", "layer_4", "layer_5", "layer_6", "layer_7", "layer_8", "layer_9", "layer_10", "layer_11", "layer_12", "layer_13", "layer_14", "layer_15", "layer_16", "layer_17", "layer_18", "layer_19", "layer_20", "layer_21", "layer_22"], "parameters": [{"name": "Sustain", "min": 0.001, "max": 1.0, "default": 0.5005}, {"name": "Tone", "min": 0.0, "max": 1.0, "default": 0.5}]}}, "weights": [0.21430806815624237, 0.17556367814540863, -0.07310984283685684, 0.28004133701324463, 0.2003820240497589, 0.3649507462978363, 0.43371009826660156, 0.5253043174743652, 0.28379324078559875, -0.10970181226730347, 0.45657798647880554, 0.3608693778514862, 0.7215703725814819, 0.4178914725780487, 0.18958710134029388, -0.09084572643041611, -0.07884810119867325, -0.2914260923862457, -0.6711134910583496, -0.3360150456428528, -0.17572623491287231, -0.3427795171737671, -0.7320169806480408, -0.8563164472579956, -0.727711021900177, 0.5281948447227478, 0.556857705116272, -0.4543398916721344, -0.6089591383934021, -1.2434782981872559, -0.32758766412734985, 0.4368959069252014, 0.8023651242256165, 0.35237330198287964, 0.5529516935348511, 1.1562018394470215, 0.5788189172744751, -0.44611549377441406, -0.5970489382743835, 0.10713391751050949, 0.041575804352760315, 0.05699542164802551, -0.03958895429968834, 0.047023989260196686, -0.11938422173261642, 0.07627052813768387, 0.11364990472793579, 0.160791277885437, -0.020343100652098656, -0.3058371841907501, -0.48716428875923157, -0.26981014013290405, -0.15546581149101257, 0.06782542169094086, 0.2173084169626236, 0.2621035575866699, 0.3269974887371063, 0.06582710146903992, 0.15556122362613678, -0.215003103017807, 0.14121903479099274, -0.05241578444838524, 0.051389992237091064, -0.5426265597343445, 0.006334985140711069, 0.025181293487548828, -1.0155774354934692, 0.020575128495693207, 1.191601037979126, 0.20012229681015015, -0.015117166563868523, 0.7348537445068359, -0.2472117841243744, -0.1434165984392166, 0.1360529214143753, 3.971940517425537, -0.07828062027692795, 1.3106955289840698, -5.189901828765869, 0.029565567150712013, 0.889238178730011, 0.0346883200109005, 0.07479764521121979, -0.2031569480895996, -1.579774260520935, 0.7609201669692993, 0.20873963832855225, 0.4929678440093994, 1.4260789155960083, 1.3837627172470093, 0.39017438888549805, -0.14843910932540894, -0.45068809390068054, -0.1158091127872467, 0.054015327244997025, -0.05617918074131012, -0.07049127668142319, -0.17103974521160126, 0.02705582045018673, -0.08790910243988037, -0.10299123078584671, -0.2105945348739624, -0.3171636760234833, -0.38905349373817444, 0.22013632953166962, -0.07087964564561844, 0.10591724514961243, 0.019664883613586426, -0.12083540856838226, 0.21266669034957886, -0.14227865636348724, 0.0786442831158638, -0.1962335705757141, -0.12262498587369919, 0.00618978776037693, -0.027719510719180107, 0.19401757419109344, -0.012602021917700768, 0.1269630342721939, 0.04280342534184456, -0.01021496206521988, 0.1248120665550232, 0.27844586968421936, 0.045878175646066666, 0.20755185186862946, -0.24212490022182465, 0.14733104407787323, -0.09016973525285721, -0.11685285717248917, -0.10555882751941681, 0.22743035852909088, -0.05982787907123566, -0.04498105123639107, 0.12737011909484863, 0.05029558390378952, -0.13272954523563385, 0.1603785753250122, 0.0338653028011322, -0.26450151205062866, -0.18681436777114868, 0.03173951432108879, -0.10455525666475296, -0.14846614003181458, 0.08324719220399857, 0.18869628012180328, -0.19407422840595245, -0.14856208860874176, -0.036566492170095444, 0.05604611337184906, -0.13770192861557007, -0.03304483741521835, -0.6953557133674622, -0.9965066909790039, -0.29776713252067566, 0.20207944512367249, 0.4580639600753784, -0.37720194458961487, 1.1449412107467651, -0.6430155634880066, 0.28784969449043274, -0.3512665927410126, 0.06782370805740356, -0.2457169145345688, -0.5125787258148193, -0.4221758544445038, 0.040976632386446, -0.0392288900911808, 1.837310552597046, 0.5098484754562378, -0.45852312445640564, 1.870385766029358, -0.3827541470527649, -0.15716636180877686, 0.3340166211128235, -0.06800685822963715, -0.9386203289031982, -0.9172019958496094, 1.2995877265930176, 1.9299547672271729, -0.027391385287046432, -0.13807861506938934, -0.5596184730529785, -0.08336649090051651, 0.16092142462730408, 0.14804832637310028, 0.17163102328777313, 0.09630294144153595, -0.0050108362920582294, 0.07948064804077148, -0.15160071849822998, -0.13878251612186432, -0.247923344373703, 0.03692343086004257, -0.2148296982049942, 0.05757350102066994, 0.15797922015190125, -0.11253208667039871, 0.0929432138800621, 0.4438841640949249, 1.094890832901001, 0.6195824146270752, 0.09044419974088669, -0.12222923338413239, -0.1878081113100052, -0.11998356878757477, -0.13788267970085144, -0.03304097056388855, -0.12705063819885254, 0.15068988502025604, -0.1322484016418457, 0.007489069830626249, 0.10002323985099792, 0.2515430152416229, 0.17617425322532654, 0.013346985913813114, -0.24505026638507843, 0.4392527639865875, 0.7698252201080322, 0.0407201312482357, -0.12971647083759308, -0.12363948673009872, -0.1388436108827591, 0.09960722178220749, -0.1759166121482849, 0.20212100446224213, 0.04331308230757713, 0.12347426265478134, -0.02324838563799858, -0.2703837454319, -0.03861657902598381, 0.15533582866191864, 0.05571863800287247, 0.025593498721718788, 0.011585342697799206, 0.1222328394651413, -0.18508687615394592, 0.006982231512665749, -0.12673553824424744, -0.20358368754386902, 0.16125747561454773, 0.34852632880210876, -0.013800552114844322, 0.21103143692016602, -0.5121713876724243, 0.5317059755325317, -0.4262748658657074, -0.2755095660686493, 0.22821098566055298, -0.3236630856990814, 0.1726883202791214, -0.07220178097486496, 0.019940756261348724, -0.1484391689300537, -0.4741653800010681, -0.43170323967933655, -0.4842546284198761, -0.05007978901267052, -1.162150502204895, -0.059141624718904495, -0.26059216260910034, 0.2118852138519287, 0.11396566778421402, 0.01685238629579544, -0.21844495832920074, -0.003184607019647956, 0.1719738394021988, 0.01623176410794258, 0.5127715468406677, 0.8285682201385498, 0.5494917035102844, -0.07559914886951447, 0.06206727772951126, -0.13458801805973053, -0.14555838704109192, 0.07291223108768463, -0.15471255779266357, -0.008059761486947536, 0.1748911440372467, 0.11793415993452072, 0.09696711599826813, 0.023015733808279037, 0.111517995595932, -0.04609307274222374, 0.15253029763698578, 0.1596207469701767, -0.1124100461602211, 0.03712642937898636, -0.09564915299415588, -0.36847373843193054, -0.2950594425201416, -0.4378156363964081, -0.045093707740306854, 0.1505347639322281, 0.09881062060594559, 0.1154654398560524, -0.11569482088088989, -0.15717864036560059, -0.009942173026502132, 0.32952699065208435, 0.19630400836467743, -0.058230943977832794, 0.009150789119303226, -0.12320401519536972, -0.22194944322109222, -0.19175446033477783, -0.011805803515017033, 0.28486204147338867, -0.03898311406373978, 0.1400880068540573, -0.23448309302330017, 0.05568517744541168, 0.17756900191307068, 0.06554931402206421, 0.30018350481987, -0.06561298668384552, -0.1442251354455948, 0.19272273778915405, -0.06038426607847214, 0.06147294119000435, -0.04774095118045807, 0.26176881790161133, -0.1927492767572403, -0.5247123837471008, -0.6299227476119995, -0.12670421600341797, 0.267030268907547, 0.3099862039089203, -0.08588025718927383, -0.13727478682994843, -0.005697176326066256, 1.380513072013855, 0.25683778524398804, 0.14756061136722565, 0.3483814001083374, 0.40866807103157043, -0.49917179346084595, 0.30641523003578186, -0.7473606467247009, -0.7184702157974243, 0.3901655972003937, 0.06551021337509155, 0.047289762645959854, -0.015884624794125557, 0.5696172118186951, 0.12018881738185883, -0.7895153760910034, 0.014580342918634415, -0.12282229214906693, -0.7500616312026978, 0.2328641563653946, 0.4336228370666504, -0.01749446615576744, 0.011141432449221611, -0.618335485458374, -0.2565920650959015, -0.7536143064498901, -0.5217408537864685, 0.5651198625564575, 0.7769802212715149, 2.2217936515808105, -0.09330938011407852, -0.2912711501121521, -0.8374446630477905, -0.1685829907655716, -0.08255888521671295, 0.0017293097916990519, -0.018582956865429878, -0.11254309117794037, 0.23693805932998657, -0.22365494072437286, -0.3116937577724457, -0.1831633597612381, 0.0594031848013401, 0.10117943584918976, 0.4603232741355896, -0.060225460678339005, 0.005234239157289267, -0.33871951699256897, -0.0712500661611557, 0.445901095867157, 0.15846769511699677, -0.18078112602233887, -0.21669088304042816, 0.016171107068657875, 0.12458668649196625, -0.08736864477396011, -0.1678863763809204, -0.03226176276803017, -0.3323212265968323, -0.2018364816904068, 0.1527843177318573, -0.042617034167051315, 0.08687365055084229, 0.20368769764900208, 0.229891836643219, 0.15070031583309174, 0.021754354238510132, 0.2084188610315323, 0.4206421971321106, 0.20462875068187714, 0.12282951176166534, 0.28325900435447693, -0.004508369602262974, -0.06363038718700409, 0.06640427559614182, 0.13036109507083893, 0.08505361527204514, 0.2520550489425659, 0.3281988799571991, 0.15847918391227722, -0.05406239628791809, -0.07246574014425278, -0.2469249665737152, -0.5017415285110474, -0.19050434231758118, -0.3219490051269531, 0.24882522225379944, -0.3001134991645813, -0.21878646314144135, -0.3335101008415222, 0.27965715527534485, -0.6351653337478638, 0.9001366496086121, 0.3452182710170746, 0.009736238978803158, -0.6546199321746826, -0.7037445306777954, -0.29854369163513184, -0.3283219039440155, -0.18683861196041107, -0.7622594833374023, -0.6824212670326233, -0.21029245853424072, -0.535670280456543, -0.3102850019931793, -0.7737515568733215, 0.44290876388549805, -1.524531364440918, -0.18230542540550232, 0.6312701106071472, 0.5368386507034302, -0.6640311479568481, -0.9985868334770203, -0.13579542934894562, -0.6293469071388245, -0.5854820609092712, -0.7921209335327148, 1.0657755136489868, 0.24342948198318481, 1.635349154472351, -0.49248650670051575, -0.414020299911499, -0.7243719100952148, 0.15561099350452423, 0.19263498485088348, 0.05695318058133125, -0.07208786904811859, 0.1349768042564392, 0.2820908725261688, -0.07345017045736313, 0.1283448040485382, -0.07137572020292282, 0.01287471130490303, 0.17838570475578308, 0.017495468258857727, 0.10832114517688751, 0.007791140116751194, 0.11779653280973434, -0.016471615061163902, 0.18707714974880219, -0.5427470803260803, 0.2255014032125473, -0.15183115005493164, 0.028313763439655304, -0.00195881724357605, -0.16198046505451202, -0.03448496386408806, -0.11924320459365845, 0.17042036354541779, 0.036696579307317734, 0.04652009531855583, 0.15847773849964142, -0.24728530645370483, -0.1628793179988861, -0.17692632973194122, -0.15956547856330872, -0.21170420944690704, -0.10108202695846558, 0.2027403861284256, 0.23150809109210968, 0.08417490869760513, 0.005290701519697905, 0.0504155233502388, 0.4051648676395416, 0.11936551332473755, -0.06515394896268845, -0.08857522904872894, -0.09913527220487595, 0.053441863507032394, 0.3168838918209076, -0.04373003542423248, -0.05717575177550316, -0.1703636348247528, -0.24704842269420624, -0.07333835959434509, 0.05164697393774986, -0.025334907695651054, 0.17507478594779968, -0.23059943318367004, 0.07320151478052139, 0.09886199235916138, -0.29473355412483215, 0.36742666363716125, 0.2750154137611389, -0.03579740226268768, -0.3684619069099426, -0.10160558670759201, 0.20214296877384186, 0.36957502365112305, 0.7914963960647583, -0.37348777055740356, -0.0871637687087059, -0.09263351559638977, 0.5547043085098267, -0.45486366748809814, 0.7316332459449768, 0.3713647425174713, -0.5137839913368225, 0.08484712988138199, 0.941119909286499, -0.74152672290802, 0.35751238465309143, 0.010344878770411015, 0.22903554141521454, 0.276843786239624, 0.5651479959487915, -0.05168237164616585, 0.8827945590019226, 0.8851556777954102, 0.6227580308914185, -0.0644158199429512, 0.06296253204345703, -0.34456971287727356, -0.08960787951946259, -0.05956944078207016, -0.08786547183990479, -0.06007569283246994, 0.06882575154304504, -0.05628000944852829, 0.08470453321933746, 0.05827432498335838, 0.13990426063537598, 0.12588566541671753, -0.035719744861125946, -0.17421092092990875, 0.026310719549655914, 0.0519375316798687, -0.056970007717609406, -0.08165688812732697, -0.1295013129711151, -0.12850354611873627, -0.031784504652023315, 0.14737118780612946, 0.2850918173789978, -0.14152197539806366, 0.14592750370502472, 0.048887141048908234, 0.22432228922843933, 0.11594009399414062, 0.038657013326883316, 0.23989415168762207, 0.2567622661590576, 0.08209138363599777, -0.13103635609149933, -0.11892509460449219, 0.11008956283330917, 0.10161400586366653, 0.300429105758667, 0.1747831106185913, 0.16681434214115143, 0.022972472012043, 0.14978167414665222, 0.04644297435879707, -0.1731773018836975, -0.24529680609703064, -0.12274293601512909, -0.0074527026154100895, -0.16951607167720795, -0.126225546002388, 0.17519426345825195, 0.04632733017206192, -0.09640982002019882, -0.09833262860774994, -0.0020806915126740932, 0.15195323526859283, 0.28038644790649414, 0.08566368371248245, 0.158616304397583, -0.00429887231439352, 0.2447172850370407, -0.4725637137889862, -0.2164628803730011, 0.4707227349281311, 0.5517698526382446, -0.36770763993263245, 0.4282408654689789, 0.2887062430381775, -0.5019955635070801, 0.23904763162136078, -0.514394223690033, -0.39965730905532837, -0.1074158325791359, -0.30327609181404114, 0.5994824171066284, -0.08551904559135437, -0.31720396876335144, -0.24868562817573547, 1.2241629362106323, -0.29100510478019714, -0.2811216115951538, -0.15327094495296478, 0.09940483421087265, 0.1426144242286682, -0.4404393434524536, -0.2876814007759094, 0.3062255084514618, 0.09631437063217163, 0.3951852023601532, 0.711920440196991, 0.2609145939350128, 0.3559551537036896, -0.46992501616477966, 0.19141194224357605, 0.15270335972309113, -0.15206271409988403, 0.21488846838474274, -0.008046398870646954, -0.09589411318302155, 0.17104370892047882, -0.14178818464279175, -0.0008541476563550532, -0.1991426646709442, -0.23859263956546783, -0.014778537675738335, 0.23850117623806, 0.1664540320634842, 0.2004339098930359, 0.027957191690802574, 0.218534454703331, 0.2593769133090973, 0.027972327545285225, 0.16758354008197784, 0.1290758103132248, 0.2030590921640396, -0.09061392396688461, -0.07959317415952682, -0.06447252631187439, 0.2242647111415863, 0.34219977259635925, 0.006650034338235855, 0.3653073012828827, 0.03424708545207977, 0.11375042051076889, -0.008857118897140026, -0.21671731770038605, -0.16710533201694489, -0.20142748951911926, 0.11163393408060074, -0.1334129273891449, 0.016420066356658936, 0.04680996388196945, -0.08906703442335129, 0.04180988669395447, -0.2661324143409729, -0.1770419478416443, -0.1916385442018509, 0.0806947648525238, 0.0032103555276989937, 0.0647694319486618, -0.030508803203701973, 0.10074053704738617, 0.21384581923484802, 0.06104135513305664, -0.0566721074283123, -0.17450742423534393, 0.06105753779411316, -0.10658705979585648, 0.04358859732747078, 0.13340073823928833, 0.08379250019788742, 0.995539128780365, 0.23467017710208893, -0.03698597475886345, -0.08649080246686935, 0.16954071819782257, 0.15584449470043182, -0.7016046047210693, 0.2014181762933731, -0.11994905769824982, -0.2803349196910858, -0.3511616885662079, 0.49167272448539734, 0.5658200979232788, 0.28733915090560913, 0.5914642214775085, -0.3775835335254669, 0.889991044998169, 0.29546108841896057, -0.09478354454040527, -0.010092868469655514, -0.14031848311424255, -0.14765328168869019, -0.9546301960945129, 0.2610071897506714, 0.034948062151670456, -0.040486156940460205, 0.09915382415056229, 1.2148888111114502, 0.8411106467247009, 0.8419577479362488, -0.2813577651977539, -0.08796051144599915, 0.004573790356516838, -0.054247889667749405, -0.013290232047438622, 0.0989496037364006, -0.07950516790151596, -0.08064693212509155, -0.18157532811164856, 0.039664026349782944, -0.06597407162189484, -0.10986020416021347, -0.3621220588684082, -0.7382733225822449, 0.043364737182855606, 0.015307902358472347, -0.09120836108922958, -0.01996692642569542, 0.1722577065229416, -0.08765347301959991, -0.09463852643966675, -0.11720442026853561, -0.04911963269114494, -0.10041230171918869, -0.12367604672908783, 0.0736900195479393, 0.0058626146055758, -0.13890524208545685, -0.1018780991435051, -0.06771572679281235, 0.07521939277648926, -0.04386686906218529, -0.35449641942977905, 0.07507931441068649, -0.12888678908348083, -0.16972662508487701, -0.17692068219184875, 0.10188592225313187, -0.15412670373916626, -0.08751559257507324, 0.1328953355550766, 0.09907081723213196, 0.15590566396713257, -0.28270772099494934, -0.3349009156227112, -0.01812594197690487, 0.11910238116979599, 0.0823797807097435, -0.0280151329934597, -0.3333928883075714, -0.7144034504890442, -0.10148079693317413, -0.14351923763751984, 0.14598529040813446, -0.031297337263822556, -0.15947581827640533, -0.14323459565639496, -0.054369423538446426, 0.10632701218128204, 0.2001139223575592, 0.07841813564300537, -0.10690771788358688, 0.13671284914016724, -0.130742609500885, 0.33043473958969116, 0.20300066471099854, -1.1765282154083252, -0.16384118795394897, -0.8372610211372375, -0.03520416468381882, 0.27365249395370483, -0.5027073621749878, 0.31413060426712036, -0.2069283276796341, 0.12330732494592667, -0.6838387250900269, -0.08098084479570389, -0.10726480931043625, 0.09749431163072586, -1.727472186088562, -0.1544417291879654, -0.14920954406261444, 0.05233585461974144, 0.27922436594963074, 0.1843435913324356, -3.836669683456421, 0.12595459818840027, 0.9067386984825134, 0.9451342225074768, -0.2330160290002823, 0.024765729904174805, 0.09534980356693268, 0.23948891460895538, 0.05040295422077179, 0.11622647196054459, 0.09358341246843338, 0.02664799802005291, 0.1471095085144043, -0.13511699438095093, 0.021280884742736816, -0.03311260789632797, -0.06965736299753189, 0.00020668913202825934, -0.11498326063156128, -0.3247930705547333, -0.0019262353889644146, -0.02367759682238102, -0.032761286944150925, -0.13067302107810974, -0.2484305202960968, 0.16098535060882568, -0.10086195915937424, -0.13329960405826569, -0.147544264793396, 0.21703100204467773, 0.004226170480251312, -0.37236833572387695, 0.061395805329084396, 0.113240085542202, -0.024435970932245255, -0.05005243793129921, -0.08429086953401566, -0.374545156955719, -0.012121960520744324, -0.02670365758240223, 0.0660301223397255, -0.07447987794876099, -0.1701141893863678, 0.07350995391607285, 0.2735624611377716, -0.01967885158956051, 0.16809235513210297, 0.18674874305725098, 0.17687734961509705, 0.38702496886253357, 0.329342246055603, 0.11963451653718948, 0.19308322668075562, -0.009346396662294865, 0.06950091570615768, -0.025490807369351387, 0.08025524765253067, -0.077448770403862, 0.18088705837726593, 0.136652410030365, 0.23411709070205688, 0.19174055755138397, -0.22602008283138275, -0.14391277730464935, -0.009921031072735786, -0.02722949907183647, -0.09160079807043076, -0.516575038433075, 0.23156042397022247, 0.21788282692432404, -0.6610279679298401, 1.109574794769287, 0.5924218893051147, 0.2524072527885437, 0.4445677101612091, -0.21511515974998474, -0.4048212170600891, 0.16154614090919495, 0.050664208829402924, 0.17059160768985748, -0.6065621376037598, 0.02207862213253975, -0.015112774446606636, -0.2763652503490448, 0.46545174717903137, 0.09060662984848022, -0.8490851521492004, -0.02334555983543396, -0.294251024723053, 0.26296040415763855, -0.7733058333396912, -0.8534561395645142, 0.48473337292671204, 1.084954857826233, 1.3291077613830566, -0.12180816382169724, -0.554119348526001, -0.8588675856590271, -0.25968363881111145, -0.030536724254488945, -0.2618725299835205, -0.12185383588075638, 0.07075287401676178, -0.04479079693555832, 0.07437595725059509, 0.011045443825423717, 0.0773855671286583, 0.09681588411331177, 0.10233917087316513, -0.04792420566082001, -0.06863071024417877, -0.026582248508930206, -0.07162477821111679, 0.015697648748755455, 0.05162082239985466, -0.24833224713802338, 0.08518718928098679, 0.1816510111093521, 0.20893508195877075, 0.15543615818023682, 0.19664698839187622, 0.08859039098024368, -0.016489870846271515, -0.043476399034261703, -0.052592650055885315, -0.033729907125234604, -0.050871048122644424, 0.2328793704509735, 0.006028186995536089, 0.03945286571979523, 0.05661800503730774, 0.02552465908229351, 0.06831055879592896, 0.5490474104881287, 0.16582940518856049, 0.07006007432937622, 0.05763988569378853, -0.14449378848075867, -0.1857750117778778, 0.3082612156867981, 0.03869951516389847, 0.051655400544404984, 0.047081224620342255, 0.08809436112642288, -0.04429928585886955, -0.1718713641166687, -0.0322369784116745, -0.07017893344163895, -0.16130751371383667, -0.25106292963027954, -0.0687899962067604, 0.14161740243434906, -0.16190017759799957, -0.017066100612282753, 0.011468985117971897, 0.6809340715408325, 0.030321137979626656, -0.1715775579214096, -0.09278319031000137, -0.12301179021596909, -0.21364642679691315, -0.9296262860298157, 0.8265952467918396, -0.11643534898757935, -0.7647071480751038, -0.061042558401823044, -0.25096821784973145, -0.09341081231832504, 0.5839592218399048, -0.056967176496982574, -0.08639024943113327, -0.005736525170505047, 0.6792747974395752, -0.1701897829771042, -0.23356933891773224, -0.04914577677845955, 0.4865442216396332, 0.011703282594680786, -0.2622709572315216, -0.045137424021959305, 0.36648496985435486, 0.18212711811065674, 0.3708401322364807, 0.8337783813476562, 1.30850088596344, -0.3073084056377411, 0.16990409791469574, 0.3380471169948578, 0.10414554923772812, -0.10912509262561798, -0.25863105058670044, -0.05470629781484604, 0.1057947501540184, 0.023533906787633896, 0.04371728375554085, 0.2651385962963104, 0.31262677907943726, 0.19469015300273895, 0.13285157084465027, -0.10477358847856522, -0.26748713850975037, -0.045773882418870926, -0.1015821024775505, -0.12285390496253967, -0.004657250363379717, -0.05824573338031769, 0.21689550578594208, 0.2536337077617645, 0.22604085505008698, 0.11265548318624496, 0.1721380650997162, 0.20860566198825836, 0.16302356123924255, 0.20440496504306793, 0.2229740023612976, 0.2423458844423294, 0.46016725897789, -0.03473328426480293, -0.017184490337967873, 0.1812911182641983, 0.06924205273389816, 0.2659759819507599, 0.09345618635416031, 0.44223031401634216, 0.09318508207798004, 0.08325861394405365, 0.17576974630355835, -0.180698424577713, -0.21786858141422272, 0.17436783015727997, 0.03753324970602989, -0.009419411420822144, -0.018753206357359886, 0.1464868038892746, -0.08432508260011673, -0.03679177910089493, 0.05127830058336258, -0.0709586814045906, -0.05275176465511322, -0.05617106333374977, 0.0030401377007365227, 0.4843153953552246, 0.21832740306854248, -0.18560881912708282, -0.11585070192813873, 0.06303615123033524, 1.3065935373306274, -0.41559457778930664, -0.774302065372467, -0.464110791683197, -0.17011627554893494, -0.15060435235500336, 0.16229282319545746, -0.16303491592407227, -0.4141407310962677, -0.6373438835144043, -0.6565574407577515, 0.5566831231117249, 0.5115490555763245, 0.13565441966056824, -0.15879704058170319, -0.017644451931118965, 0.7291616201400757, 0.3050880432128906, -0.563803493976593, -0.16017472743988037, 0.17098061740398407, 0.025578182190656662, -1.3165836334228516, -0.7328184843063354, -0.19399724900722504, 0.11838673055171967, 0.42469078302383423, 1.8596245050430298, 1.2700263261795044, 0.10477316379547119, -1.2628543376922607, -0.13401132822036743, 0.06671736389398575, 0.09226265549659729, 0.12763060629367828, 0.21521452069282532, 0.24471774697303772, 0.4951549768447876, -0.031889382749795914, -0.039587706327438354, -0.0580795481801033, -0.08584694564342499, -0.11116406321525574, 0.4779758155345917, 0.013883347623050213, 0.026145312935113907, 0.033197056502103806, 0.06480327993631363, 0.10922902822494507, -0.14493294060230255, 0.06350458413362503, 0.07463639229536057, 0.14603783190250397, 0.1570848673582077, 0.24137207865715027, 0.37446215748786926, -0.029824845492839813, -0.04033487290143967, -0.06449733674526215, -0.07277531176805496, -0.10089515149593353, 0.3240123391151428, 0.002701075281947851, 0.011418672278523445, 0.02522336319088936, 0.034174587577581406, 0.11088335514068604, -0.13644224405288696, 0.3153955340385437, 0.0554807223379612, 0.0872943326830864, -0.10126805305480957, 0.025239139795303345, -0.5849447250366211, -0.13360045850276947, -0.015470247715711594, 0.0002522164140827954, 0.03240082785487175, -0.031194277107715607, -0.5564591884613037, 0.09759999066591263, 0.13087931275367737, 0.09922872483730316, 0.05567242205142975, 0.07751332968473434, -0.08148136734962463, -0.20072968304157257, -0.04492408409714699, 0.009753246791660786, 0.4234919548034668, 0.04684276506304741, -0.23594237864017487, 0.2207978218793869, -0.5507544875144958, 0.26861318945884705, -0.7755839824676514, 0.768301784992218, 0.37986040115356445, -0.010156235657632351, 0.5102254748344421, 0.37354668974876404, -0.4076790511608124, -0.30780258774757385, -0.07171033322811127, 0.8904492259025574, 0.2546938359737396, 0.5183902382850647, -0.009081323631107807, -0.4306773543357849, -0.1398957222700119, 0.49353086948394775, -0.048638131469488144, 0.04703441634774208, 0.03741410747170448, -0.15497438609600067, -0.029766902327537537, 1.1587953567504883, 1.3802504539489746, 0.7793505787849426, -0.6948528289794922, -0.06068385764956474, 0.24536491930484772, 0.30513861775398254, 0.0538974367082119, 0.052006252110004425, 0.12812446057796478, 0.2709108293056488, -0.024828381836414337, -0.07153792679309845, 0.15035413205623627, 0.49822577834129333, -0.01768726110458374, -0.05854817479848862, 0.1920609474182129, 0.14060302078723907, 0.2712143361568451, 0.005289094056934118, 0.10879647731781006, 0.10384287685155869, 0.0009273664909414947, -0.03290163725614548, 0.22356736660003662, -0.03457273915410042, 0.22174973785877228, 0.16554613411426544, -0.18699735403060913, 0.010361166670918465, -0.009813925251364708, 0.0020186391193419695, -0.02313275821506977, -0.03162136301398277, -0.6014591455459595, 0.09002464264631271, 0.13933397829532623, -0.0441446453332901, 0.09758766740560532, -0.12454141676425934, 0.204572856426239, -0.0126865915954113, -0.011823919601738453, -0.06366712599992752, -0.01429937407374382, -0.08164840936660767, 0.05953557789325714, 0.0005099752452224493, -0.003408646211028099, 1.7118520190706477e-05, -4.24759928137064e-05, 0.010858275927603245, -0.4309518337249756, 0.015204562805593014, 0.003062892472371459, -0.048206329345703125, -0.056121960282325745, -0.11289838701486588, -0.2001504898071289, -0.21880978345870972, -0.16106989979743958, 0.18929614126682281, 0.013060079887509346, 0.830849289894104, 0.009713015519082546, 0.23895852267742157, 0.0934189110994339, 0.4811304211616516, -0.3128242790699005, 0.3504272699356079, -0.492372065782547, -0.4804834723472595, 0.029426734894514084, -0.6209893822669983, -0.20994101464748383, -0.1911751627922058, -0.330780953168869, 0.013642729260027409, 0.37164804339408875, 0.08525510877370834, -1.109114170074463, 0.34208881855010986, -0.10114104300737381, -0.8638777136802673, -0.5735989212989807, 0.08596458286046982, 0.08595279604196548, 0.17405256628990173, 0.02648715302348137, 1.2014199495315552, 0.8956621885299683, 0.6639523506164551, -0.6931259632110596, -0.2182597517967224, -0.2064381092786789, 0.15500831604003906, -0.06357641518115997, 0.1448754370212555, -0.0426422543823719, 0.038815442472696304, 0.06473423540592194, 0.1416328102350235, -0.0008756017195992172, 0.15643325448036194, 0.07990448921918869, 0.1718776375055313, 0.09621930867433548, 0.11159171909093857, -0.04247641935944557, -0.008425643667578697, 0.01765594817698002, -0.07771606743335724, 0.010710551403462887, -0.06979313492774963, 0.041108228266239166, -0.033493198454380035, -0.026697156950831413, 0.0120209576562047, -0.08586465567350388, -0.06983393430709839, 0.005799688398838043, -0.16009356081485748, -0.2534356117248535, -0.37087151408195496, -0.058020785450935364, -0.03793112188577652, 0.0028312241192907095, -0.12643884122371674, -0.10581837594509125, -0.08139801770448685, -0.15040044486522675, -0.1334744393825531, -0.20018671452999115, -0.10483400523662567, 0.012832704931497574, -0.013401729054749012, -0.053500354290008545, 0.002294345060363412, -0.057162582874298096, 0.045489098876714706, 0.09025756269693375, 0.06176121160387993, 0.14720475673675537, -0.09020679444074631, 0.16596069931983948, -0.015744103118777275, 0.18371503055095673, 0.05973063036799431, 0.12230952084064484, 0.03106500953435898, 0.16595867276191711, 0.07239450514316559, 0.21383774280548096, -0.16043315827846527, -0.03628307208418846, -0.016582608222961426, -0.06538968533277512, -0.04501277580857277, 0.043117452412843704, 0.03502069041132927, -0.04181422293186188, 0.01580164022743702, -0.12040875107049942, 0.08548980951309204, -0.10877040773630142, -0.1387796700000763, -0.25057289004325867, -0.2343287318944931, -0.26458975672721863, -0.0969877690076828, -0.031679291278123856, -0.10498286038637161, -0.04874436929821968, -0.20994052290916443, -0.05191042646765709, -0.18350711464881897, -0.20404775440692902, -0.13513100147247314, 0.037842582911252975, 0.012826821766793728, 0.02059726044535637, 0.0349130742251873, -0.14181660115718842, 0.05663927271962166, -0.07957059144973755, 0.2756042182445526, 0.10788267850875854, -0.1494542807340622, 0.12160839140415192, 0.16802774369716644, -0.3183991611003876, -0.07700455188751221, -0.04657413810491562, -0.10811556875705719, 0.10618981719017029, -0.023086873814463615, 0.00033771625021472573, -0.01611182652413845, -0.11651941388845444, -0.18889296054840088, 0.15977317094802856, -0.16249260306358337, 0.02426198683679104, 0.06329256296157837, -0.2061655968427658, 0.4259527027606964, 0.12671460211277008, 0.21650910377502441, 0.24233125150203705, 0.2560534179210663, 0.35613521933555603, -0.6870126724243164, 0.2301701158285141, 0.05473770201206207, -0.006668910849839449, -0.0801490843296051, 0.01897616498172283, 0.12873077392578125, -0.11029079556465149, -0.07746150344610214, 0.1609792560338974, 0.1271117627620697, 0.2625468671321869, 0.18316470086574554, 0.09398823231458664, -0.036841053515672684, 0.06731285154819489, 0.3040676712989807, 0.20368820428848267, 0.136928990483284, -0.029798762872815132, -0.06613419204950333, -0.37034887075424194, 0.06895782798528671, -0.0003752207849174738, 0.7222094535827637, 0.20092390477657318, -0.35001349449157715, -0.11302702128887177, -0.9125045537948608, 0.858593225479126, 0.7302666902542114, -0.5539717078208923, 0.44288426637649536, 0.03548656031489372, -0.5694794058799744, -0.44195282459259033, 0.5488115549087524, 0.14075763523578644, 0.007408647798001766, 0.1295456737279892, -0.19840990006923676, 1.128112554550171, 1.0912970304489136, -0.4764289855957031, -0.022525234147906303, -0.3491407334804535, 0.03027973510324955, -2.9330804347991943, -1.4429882764816284, 1.5338329076766968, 1.5282732248306274, 2.705509662628174, -0.1908690482378006, -0.4342051148414612, -1.9006487131118774, 0.03723142668604851, 0.022167803719639778, 0.06066856160759926, 0.003575446316972375, 0.06410688906908035, -0.018118958920240402, -0.08775263279676437, -0.03258034214377403, 0.04159444943070412, 0.030691400170326233, -0.05155611410737038, -0.07602476328611374, 0.008958455175161362, -0.13939130306243896, 0.00753255607560277, -0.035740844905376434, -0.006769812200218439, -0.012267756275832653, -0.05059511587023735, -0.03688814118504524, 0.005812135525047779, 0.001932597137056291, -0.0550798736512661, 0.01012501586228609, -0.029184840619564056, -0.020825905725359917, 0.02810152806341648, -0.04010292887687683, -0.021511446684598923, 0.3447324335575104, 0.09531653672456741, 0.029505662620067596, 0.024554666131734848, 0.1061972826719284, 0.12354255467653275, -0.011116918176412582, -0.0007789709488861263, 0.06098005175590515, -0.004022983834147453, 0.04150700941681862, 0.0486021563410759, -0.007864340208470821, 0.19974683225154877, 0.1428200602531433, 0.12815000116825104, -0.007801675703376532, 0.007408906240016222, 0.20946422219276428, 0.1952333152294159, 0.04220540076494217, -0.10121133178472519, 0.04076358675956726, 0.048595573753118515, -0.012500008568167686, 0.08130450546741486, -0.09648483246564865, 0.029088154435157776, -0.04509711638092995, 0.13556735217571259, 0.1838589310646057, -0.16856703162193298, 0.026568403467535973, -0.08209975063800812, -0.21891872584819794, -0.0987025797367096, 0.14553263783454895, 0.0313120037317276, -0.16115866601467133, 0.03932875022292137, 0.014509973116219044, -0.07995323091745377, 0.11123357713222504, 0.01858692802488804, 0.03746187314391136, 0.12627677619457245, 0.41967979073524475, 0.1559523493051529, 0.17692533135414124, -0.05588500574231148, -0.0678795799612999, -0.05564805492758751, 0.1536109447479248, 0.09271502494812012, 0.15546715259552002, 0.19348427653312683, 0.04764935001730919, -0.15529634058475494, -0.15075068175792694, -0.004623970482498407, -0.2013944834470749, -0.056289561092853546, -0.061603233218193054, -0.037199851125478745, -0.024790583178400993, -0.020781558007001877, 0.003071760991588235, 0.02611176297068596, -0.02835794910788536, -0.003185571637004614, -0.007343316916376352, 0.023338302969932556, 0.058927856385707855, 0.08378509432077408, 0.12955692410469055, 0.23254306614398956, 0.021101191639900208, 0.029140086844563484, 0.03796372190117836, 0.02145647257566452, 0.030155187472701073, 0.046641577035188675, 0.013353284448385239, 0.039122045040130615, 0.052413348108530045, 0.04010222479701042, 0.007244724780321121, 0.034398481249809265, 0.033976487815380096, 0.003418198088183999, -0.5905265212059021, -0.05418747663497925, -0.08275562524795532, -0.08359727263450623, -0.06371872872114182, -0.07426566630601883, -0.0873585119843483, -0.0072953300550580025, -0.07943500578403473, -0.08884796500205994, -0.05867438390851021, -0.02432936243712902, -0.01850813254714012, -0.028590643778443336, -0.05543693155050278, 0.10905724763870239, 0.16202367842197418, -0.12440082430839539, -0.05111567676067352, -0.7051903009414673, -0.013164889998733997, -0.4239411950111389, -0.4571482539176941, 0.3500169515609741, 0.07631859928369522, 0.38685473799705505, 0.5735942125320435, 0.46468237042427063, 0.17280572652816772, 0.046803101897239685, -0.34684184193611145, -0.5631359219551086, -0.04165653884410858, -0.16360312700271606, 0.3412500321865082, -0.14836567640304565, -0.16085630655288696, -0.36117023229599, -1.0192630290985107, -0.4657934606075287, 0.19089174270629883, 0.04873934015631676, -0.9191762804985046, 0.2900090515613556, 0.12353570759296417, 0.43477949500083923, 0.6624591946601868, 1.4195383787155151, -0.5649016499519348, 0.014632870443165302, -0.0862928032875061, 0.10159584879875183, -0.021701671183109283, 0.058336690068244934, 0.16451910138130188, 0.18005244433879852, 0.021001698449254036, -0.16210925579071045, -0.18591304123401642, -0.21197976171970367, 0.00047928132698871195, -0.27473893761634827, -0.30536705255508423, -0.274199903011322, 0.01971004344522953, 0.03140314295887947, -0.2607504427433014, -0.042670607566833496, -0.12444394826889038, 0.042326245456933975, -0.016439106315374374, -0.013670207001268864, -0.09925208985805511, 0.04366398602724075, -0.03898053616285324, -0.12266592681407928, -0.013517349027097225, -0.046417057514190674, -0.32915422320365906, -0.13413967192173004, -0.43745845556259155, -0.3480856120586395, 0.04861387982964516, -0.014746378175914288, -0.0723891407251358, 0.09167774766683578, -0.2248990833759308, 0.004544681869447231, 0.02767457440495491, -0.06566121429204941, 0.08190450072288513, 0.284736305475235, 0.12226642668247223, 0.003075165906921029, -0.14698657393455505, -0.19739051163196564, -0.23214977979660034, -0.33484476804733276, -0.3520095646381378, -0.4347739815711975, -0.037493325769901276, -0.004693463910371065, 0.13112859427928925, -0.017746297642588615, -0.3374151289463043, -0.21414877474308014, -0.07274942100048065, -0.026812618598341942, -0.00822385773062706, 0.046509575098752975, 0.11976969242095947, 0.10577862709760666, 0.04516834765672684, -0.0491408035159111, 0.2213023155927658, -1.4024782180786133, -0.5778200626373291, -0.36744797229766846, 0.32593029737472534, 0.34809285402297974, -0.6447727680206299, 0.048288825899362564, 0.09621565043926239, -0.18652206659317017, 1.3228648900985718, 0.8265694379806519, 0.6938828825950623, 0.9773708581924438, 0.5268803238868713, -1.190814733505249, -0.4774572253227234, 0.26497724652290344, -0.5552797317504883, -0.3454461097717285, -0.24837923049926758, 0.12104802578687668, 2.216099739074707, 0.8412940502166748, 1.1535574197769165, 0.3226025104522705, -0.3344690203666687, -0.13124912977218628, -0.09723766148090363, -0.06019829958677292, 0.2029539793729782, 0.08306393772363663, 0.17973265051841736, 0.017961246892809868, -0.00310724088922143, -0.004979768767952919, 0.09366315603256226, 0.055010244250297546, 0.3359246253967285, 0.47898420691490173, 0.02539190649986267, 0.07747647911310196, 0.3042100667953491, 0.161211758852005, -0.2773672938346863, -0.5323178768157959, 0.5063887238502502, 0.8543955683708191, 0.9363787174224854, 0.7577410936355591, 0.018444985151290894, -0.0581359937787056, 0.08020814508199692, 0.03761720284819603, -0.1370338797569275, 0.11604124307632446, -0.0551653616130352, 0.022274866700172424, -0.3702355921268463, -0.3942565619945526, -0.24684976041316986, 0.009029011242091656, 0.004910486284643412, 0.0948052778840065, -0.08401484042406082, -0.015118815004825592, -0.13836319744586945, 0.0670132264494896, 0.17899957299232483, 0.0012049790238961577, 0.0015244589885696769, -0.004078712314367294, -0.04504596069455147, -0.027925441041588783, -0.0055848378688097, -0.3476051986217499, -0.04005115479230881, -0.09962201863527298, -0.2439267784357071, -0.17456960678100586, -0.13577580451965332, -0.19023939967155457, 0.08754251897335052, -0.042849864810705185, -0.5293583273887634, -0.14978812634944916, -0.01674974523484707, 0.1394464075565338, 0.005662638694047928, 1.7013882398605347, -0.2961456775665283, -0.2020881026983261, -1.4222966432571411, -0.08647795021533966, 0.10579771548509598, 0.8311681747436523, 0.8370461463928223, -0.7657366991043091, 0.4100552499294281, -0.4834989309310913, 0.018690001219511032, -0.738821268081665, 1.7552908658981323, 4.207221031188965, 0.336045503616333, 0.017946146428585052, 0.004613883793354034, 0.05977765470743179, -0.23895348608493805, 0.1426049917936325, -0.35177573561668396, -0.32214921712875366, 1.8524807691574097, 2.0550661087036133, 0.813432514667511, -0.26730599999427795, 0.5516656637191772, -1.1174981594085693, -0.0818718671798706, 0.07587314397096634, 0.09203840047121048, 0.06260561943054199, 0.0224954504519701, -0.1754702478647232, -0.03389032185077667, -0.03906693309545517, 0.025451764464378357, 0.03356014937162399, 0.16333965957164764, 0.3319857120513916, -0.11185614764690399, -0.025325633585453033, 0.0433618500828743, 0.14767494797706604, 0.2509841322898865, 0.20956672728061676, -0.28375479578971863, 0.017774369567632675, -0.07248227298259735, -0.3571355938911438, -0.3848450481891632, -0.11555316299200058, -0.020807655528187752, 0.012420225888490677, 0.018286986276507378, 0.09084377437829971, 0.1581982523202896, 0.3580837845802307, -0.1017710343003273, 0.046557482331991196, 0.005153355188667774, 0.14868013560771942, 0.15929974615573883, 0.033684056252241135, -0.2005990594625473, -0.12981250882148743, -0.16181230545043945, -0.21056513488292694, -0.47276875376701355, -0.2358694225549698, -0.028558915480971336, -0.005089069716632366, -0.004958651959896088, 0.044274792075157166, 0.1128019466996193, 0.8663278222084045, -0.10452760756015778, -0.04113766923546791, -0.07853532582521439, 0.006242495961487293, 0.10210483521223068, -0.9050998091697693, 0.22705626487731934, 0.31137150526046753, 0.2691164016723633, -0.08258575946092606, -0.49298104643821716, 0.02768770232796669, -0.6145176887512207, -0.10717625170946121, -0.022116733714938164, 0.22673408687114716, 0.8197441697120667, -0.0027272950392216444, -0.17827871441841125, 0.552347719669342, 0.10584723204374313, -0.5844535827636719, -0.29353755712509155, -0.3092699944972992, 0.30728593468666077, 1.4307624101638794, 0.10256563127040863, -0.7800438404083252, 0.28722745180130005, 3.0789639949798584, 0.7256211638450623, -0.4380030930042267, 0.09327098727226257, -0.2590460777282715, -0.6685653924942017, 1.0858161449432373, -0.2634590268135071, 1.0990065336227417, -0.09210716933012009, 0.9875807762145996, 0.36744561791419983, -0.2795502245426178, -0.08389507979154587, -0.11865809559822083, 0.14763393998146057, 0.24424198269844055, -0.022109007462859154, -0.21814090013504028, -0.016441283747553825, -0.010180852375924587, -0.007133314851671457, -0.010500779375433922, -0.17625652253627777, -0.011202171444892883, -0.022021964192390442, -0.02935601957142353, 0.016244709491729736, 0.00771933700889349, -0.4324537217617035, 0.006202242337167263, 0.004299004562199116, 0.002299053128808737, 0.06029723212122917, 0.07320507615804672, 0.14635826647281647, -0.03654612973332405, 0.0032241041772067547, 0.0008306187228299677, 0.004309059586375952, 0.005117051303386688, 0.021325793117284775, 0.34922900795936584, 0.00912169273942709, 0.01389337982982397, 0.015443800017237663, 0.024616071954369545, 0.08257538825273514, 0.5153198838233948, 0.22546936571598053, 0.12980088591575623, 0.12609124183654785, 0.08819443732500076, 0.08961617946624756, -0.08266543596982956, 0.021337341517210007, 0.014488272368907928, 0.014371751807630062, 0.009066883474588394, 0.010270812548696995, -0.24422071874141693, 0.10215460509061813, 0.06964785605669022, 0.06847374141216278, 0.05325310304760933, 0.06682437658309937, 0.30504220724105835, 0.3998700976371765, 0.11454132199287415, -0.21242257952690125, 0.1601020246744156, 0.14523757994174957, 1.221100926399231, 0.44450801610946655, -0.11015414446592331, 0.597697913646698, -0.27827349305152893, -1.5927664041519165, 1.1231813430786133, -0.8723372220993042, -0.6225594282150269, -0.8226987719535828, 0.09321507066488266, -0.5786566734313965, 0.15821392834186554, -0.057337142527103424, -0.6220762133598328, 0.39034390449523926, 0.441609650850296, 0.28940027952194214, 0.2785673141479492, -0.13681074976921082, -0.032174836844205856, -0.7146490812301636, 0.2043018490076065, 0.2828969657421112, -0.46179044246673584, 0.9617189168930054, 0.9598354697227478, 0.3759806156158447, 0.7765400409698486, -0.15989497303962708, 0.48467952013015747, 0.2660013735294342, 0.20486164093017578, 0.3319784104824066, 0.18061915040016174, 0.20867013931274414, 0.2096276581287384, 0.20961107313632965, 0.2313993275165558, 0.16289585828781128, 0.4171237051486969, 0.2188553661108017, 0.1684519499540329, 0.38652274012565613, 1.365025281906128, 0.9041553139686584, 0.5183733105659485, 0.6618813276290894, 0.4276469945907593, -0.024860892444849014, -0.06109264865517616, -0.1205737516283989, 0.020706625655293465, -0.15200775861740112, -0.029088707640767097, -0.01544400304555893, -0.018556542694568634, -0.03774084150791168, -0.0297196414321661, -0.026624543592333794, -0.6449434161186218, -0.057374872267246246, 0.016045665368437767, -0.05428850278258324, 0.07527866214513779, 0.0011071449844166636, -0.2430158257484436, -0.010207612998783588, 0.20539383590221405, 0.0675436407327652, 0.09161093831062317, 0.04786965250968933, 0.22095996141433716, 0.22616605460643768, 0.2807650566101074, 0.12056272476911545, 0.33075714111328125, 0.2864828109741211, -0.016158293932676315, -0.023224765434861183, 0.22637370228767395, 0.22837300598621368, 0.06967277079820633, 0.031884655356407166, -0.19803406298160553, -0.2941116392612457, 0.3226250112056732, -0.3118439018726349, -0.04124165326356888, -0.4595039188861847, -0.782034158706665, -0.3648381233215332, 0.7773109674453735, 0.04257453605532646, -0.6204756498336792, 3.5772316455841064, 1.1214098930358887, 0.7880776524543762, 1.4344223737716675, 1.086216926574707, -0.10181553661823273, 0.32404613494873047, 0.2289711982011795, 1.8148555755615234, 0.13095608353614807, -4.277656078338623, -0.006952390540391207, -0.37083670496940613, 1.901745080947876, -0.7734975218772888, -1.4394811391830444, -5.574475288391113, -0.03998606279492378, -1.5179225206375122, -1.4262391328811646, 2.8600337505340576, 0.13176068663597107, 1.6668685674667358, -1.0193418264389038, -0.3235931694507599, -0.9798478484153748, 0.2125033140182495, 0.13335223495960236, 0.3652656674385071, 0.45319250226020813, 0.18995745480060577, 0.27902868390083313, 0.20289166271686554, 0.3064868450164795, 0.2726742923259735, 0.20847126841545105, 0.20045560598373413, 0.02070937305688858, 1.2286230325698853, 1.344125747680664, 1.494776725769043, 0.4933973550796509, 0.8521920442581177, -0.5152538418769836, -0.08395570516586304, -0.14914308488368988, -0.1418997198343277, -0.18308581411838531, -0.27112752199172974, 0.3310515582561493, -0.0068752760998904705, -0.010571084916591644, -0.01023401040583849, -0.011359347961843014, -0.0229312963783741, 0.833933413028717, -0.032287854701280594, -0.07919749617576599, -0.039468612521886826, -0.11685888469219208, -0.05959349498152733, -0.10220884531736374, -0.02099037356674671, 0.3151622414588928, 0.2918144762516022, 0.2845068871974945, 0.018234029412269592, 0.37099888920783997, 0.11772821098566055, 0.32277441024780273, 0.30902236700057983, 0.2954387366771698, 0.38911232352256775, -0.01766660436987877, 1.0524389743804932, 1.1216109991073608, 1.8209415674209595, 0.7516870498657227, 1.7015604972839355, -0.4448711574077606, -0.5174070596694946, -0.0759466141462326, -0.6825476288795471, 0.6351010203361511, 0.5470528602600098, -0.30672934651374817, -1.828796625137329, -0.3831031322479248, -1.3361669778823853, 0.13894467055797577, -0.3652779757976532, -1.2006819248199463, 0.49411511421203613, -0.2506082355976105, 1.099226474761963, 0.04629930853843689, 0.6211079955101013, -0.5831535458564758, -0.134093776345253, 1.2952921390533447, 0.001814382616430521, -1.144565224647522, 0.2574242651462555, -0.37919002771377563, -1.658467173576355, -2.1133205890655518, 0.04220636561512947, -0.0021269042044878006, -4.4021124839782715, -4.170173645019531, 3.9090325832366943, 1.1525119543075562, 4.441664218902588, -1.649922251701355, 0.1942339986562729, -3.6985907554626465, -0.18647679686546326, -0.1660110503435135, -0.22869066894054413, -0.2521010637283325, -0.16081297397613525, 0.22434663772583008, -0.03228767588734627, -0.02527747116982937, -0.0402880534529686, -0.05348141863942146, -0.022492622956633568, -0.5229272246360779, 0.028480878099799156, 0.027724282816052437, 0.028030285611748695, 0.006328297778964043, 0.09303400665521622, 0.043292053043842316, -0.10153758525848389, -0.09179731458425522, -0.12349387258291245, -0.134320467710495, -0.06338454782962799, 0.27018433809280396, -0.019151810556650162, -0.01400715671479702, -0.02442067302763462, -0.031061584129929543, -0.007193940691649914, -0.5207315683364868, 0.014066899195313454, 0.02586723119020462, 0.008658303879201412, 0.012589803896844387, 0.07376430928707123, 0.26429495215415955, -0.21653549373149872, -0.17515037953853607, -0.20046544075012207, -0.24119146168231964, -0.1667390763759613, 1.9281405210494995, -0.03973684459924698, -0.012790636159479618, -0.02764449082314968, -0.05306888371706009, -0.003981299698352814, 1.6841108798980713, 0.018895788118243217, 0.06348314881324768, 0.07540316134691238, 0.00467298086732626, 0.16267703473567963, 0.7919192314147949, -0.2044316530227661, -0.1589089035987854, -3.7935872077941895, -0.22464540600776672, -0.20132862031459808, -0.3941335082054138, 0.051847293972969055, -0.26074546575546265, 0.20684365928173065, -0.38090917468070984, -0.48895201086997986, -0.0820789709687233, -0.3121434450149536, 0.36392301321029663, -0.39462974667549133, -0.04846988618373871, 0.23980453610420227, -0.5056081414222717, 0.7560484409332275, -0.42254671454429626, 0.7183420658111572, -0.1050829365849495, 5.493584632873535, 17.286361694335938, -1.0376510620117188, -1.436887264251709, -0.8424326181411743, 0.6068317294120789, -15.385493278503418, -21.17338752746582, 1.3625456094741821, 1.15232515335083, 9.33054256439209, 1.025117039680481, -1.3270074129104614, -14.386841773986816, 0.014227665029466152, 0.010649182833731174, 0.015691515058279037, 0.012835615314543247, 0.01671421341598034, 0.012144457548856735, 0.015684064477682114, 0.02323290705680847, 0.02782939374446869, 0.03156961873173714, 0.0316583514213562, 0.04217375069856644, 0.05552712455391884, 0.08474913239479065, 0.04895975813269615, 0.018078111112117767, -0.018651725724339485, -0.0130248311907053, -0.01592397876083851, -0.01923680119216442, -0.01975659467279911, -0.027130166068673134, -0.030847594141960144, -0.037195365875959396, -0.047199927270412445, -0.05597182735800743, -0.07062927633523941, -0.09168584644794464, -0.0943298265337944, -0.05031868442893028, 0.02858877368271351, 0.022043734788894653, 0.0073793865740299225, 0.0029652880039066076, 0.0035434593446552753, 0.007489168085157871, 0.007513676304370165, 0.010422877967357635, 0.027630681172013283, 0.026477335020899773, 0.03441649302840233, 0.04383806511759758, 0.058164436370134354, 0.08577053993940353, 0.07783807069063187, -0.26301831007003784, -0.12124453485012054, 0.0019401515601202846, -0.0772261917591095, 0.08916065841913223], "metadata": {"date": {"year": 2026, "month": 7, "day": 17, "hour": 21, "minute": 10, "second": 10}, "loudness": -18.0, "gain": 0.5870079065279098, "name": "Muffinator V1", "gear_model": "Muffinator V1", "modeled_by": "Gene Ko", "gear_type": "pedal"}, "sample_rate": 48000}}, {"max_value": 0.666667, "model": {"version": "0.7.0", "architecture": "ParametricWaveNet", "config": {"layers": 5, "head_scale": 0.03359340503811836, "parametric": {"type": "film", "schema_version": 1, "condition_size": 2, "head_mode": "skip", "film_layers": ["layer_0", "layer_1", "layer_2", "layer_3", "layer_4", "layer_5", "layer_6", "layer_7", "layer_8", "layer_9", "layer_10", "layer_11", "layer_12", "layer_13", "layer_14", "layer_15", "layer_16", "layer_17", "layer_18", "layer_19", "layer_20", "layer_21", "layer_22"], "parameters": [{"name": "Sustain", "min": 0.001, "max": 1.0, "default": 0.5005}, {"name": "Tone", "min": 0.0, "max": 1.0, "default": 0.5}]}}, "weights": [-0.8856613636016846, -0.6722297072410583, -0.4775194525718689, 0.3104020655155182, 0.14356738328933716, 0.13872484862804413, 0.19765205681324005, 0.044974349439144135, 0.20155911147594452, 0.03516910970211029, -0.04047103226184845, 0.04450341314077377, 0.038106780499219894, 0.014193207956850529, 0.1819223016500473, 0.2052617222070694, 0.21064838767051697, -0.0047017731703817844, 0.18012160062789917, 0.12141750007867813, 0.05252480506896973, 0.27390506863594055, 0.005076269153505564, -0.08712170273065567, -0.08722850680351257, 0.004704657476395369, -0.2643560767173767, -0.16292715072631836, -0.03798462823033333, -0.16156437993049622, 0.018243489786982536, -0.009219163097441196, -0.11860601603984833, -0.16197334229946136, -0.082787424325943, -0.0549808070063591, -0.10369759798049927, -0.001444001798518002, 0.18482887744903564, 0.18452882766723633, -0.042326848953962326, 0.10649488866329193, 0.16520453989505768, 0.009995844215154648, -0.038761354982852936, 0.11646606028079987, -0.10701967775821686, -0.006002258043736219, 0.0420975498855114, -0.07224618643522263, -0.059366077184677124, -0.08580466359853745, -0.04617787525057793, -0.06203747168183327, -0.1159432902932167, -0.22205910086631775, -0.14319553971290588, 0.15418976545333862, -0.011395149864256382, -0.25650426745414734, -0.10896923393011093, 0.11603128165006638, -0.05768641084432602, -0.037194397300481796, 0.2064751535654068, 0.012104933150112629, 0.007989775389432907, 0.2397557646036148, 0.022871630266308784, 0.060758933424949646, 0.10774202644824982, 0.05182009935379028, -0.14811821281909943, 0.1770716905593872, -0.036237336695194244, -0.06305210292339325, 0.12201441824436188, -0.14081594347953796, -0.09754245728254318, 0.03187970072031021, 0.04093383997678757, 0.07225985080003738, 0.09830199927091599, 0.1421545445919037, -0.14393344521522522, -0.23197589814662933, -0.2233012467622757, 0.057400867342948914, 0.013579940423369408, -0.08657131344079971, -0.10121393948793411, -0.03795884549617767, 0.012238661758601665, 0.011977266520261765, 0.18596747517585754, -0.13273146748542786, -0.2992148697376251, -0.07320088148117065, -0.44794800877571106, -0.05022156983613968, 0.4477514326572418, -0.1937335729598999, -0.2593008279800415, -0.16583026945590973, -0.38031524419784546, 0.08984469622373581, 0.446412593126297, -0.15926595032215118, -0.34195461869239807, 0.0028803301975131035, -0.19334113597869873, 0.13105237483978271, 0.283475786447525, 0.17346985638141632, 0.18067097663879395, 0.06545669585466385, 0.44073665142059326, 0.13376763463020325, -0.45359474420547485, 0.24275855720043182, 0.2762680947780609, -0.056060753762722015, 0.24610625207424164, 0.00872108805924654, -0.46627458930015564, -0.019219355657696724, -0.1007782369852066, 0.1583847552537918, 0.015242643654346466, 0.10625239461660385, -0.0211898572742939, -0.017149124294519424, 0.03644600510597229, 0.11165805160999298, -0.15285621583461761, 0.06217529624700546, 0.16466690599918365, -0.022452810779213905, -0.12354140728712082, 0.23937514424324036, -0.05847848579287529, 0.11148997396230698, -0.04859718307852745, 0.13331107795238495, 0.025848418474197388, -0.0916314348578453, -0.13564470410346985, -0.131989985704422, -0.17863011360168457, -0.038479726761579514, -0.11625108122825623, -0.1688101440668106, 0.06964368373155594, -0.10302639752626419, 0.0044162692502141, -0.037330999970436096, -0.09632859379053116, -0.0237616878002882, -0.3199046850204468, -0.03665583208203316, 0.1627117544412613, 0.16664645075798035, -0.8675387501716614, 0.5069350600242615, 0.8221476078033447, 0.1609555333852768, 0.07679009437561035, -0.4221961200237274, -0.2515242397785187, -0.22877000272274017, -0.20212173461914062, 0.019257398322224617, 0.15208198130130768, 0.3464946448802948, -0.3253253996372223, 0.1583399474620819, 0.3204326033592224, -0.3686027228832245, -0.37441784143447876, -0.03132204711437225, -0.2567111849784851, -0.3379232585430145, 0.531859815120697, 0.4816696047782898, -0.16385582089424133, 0.5075422525405884, 0.12237518280744553, 0.07705175131559372, -0.11166305840015411, 0.11492309719324112, 0.3554174602031708, 0.2521566152572632, -0.08031096309423447, 0.3963160216808319, -0.29511916637420654, 0.7687986493110657, -0.1277293860912323, 0.721034049987793, 0.007565717212855816, 0.8685978055000305, 0.008212128654122353, 0.34837013483047485, -0.29941844940185547, 1.3710840940475464, -1.3019664287567139, -0.0968819186091423, -0.009420757181942463, -0.05190858617424965, 0.0025906336959451437, 0.08575830608606339, 0.007086708210408688, -0.21386024355888367, 0.19167688488960266, 0.06821797788143158, -1.1071789264678955, 0.8028627038002014, 0.6384702324867249, 0.06412731856107712, 1.3863502740859985, 0.04658195748925209, 0.25870856642723083, 0.11761824041604996, 0.014226636849343777, -0.748704195022583, -0.04481978714466095, 0.02313881553709507, 0.06647790223360062, 0.14800076186656952, 0.13571420311927795, -0.004391205497086048, -0.07282745838165283, 0.13573285937309265, 0.08710819482803345, -0.12104744464159012, -0.13393086194992065, -0.15659627318382263, 0.3084609806537628, -0.22129331529140472, -0.29579147696495056, -0.32823196053504944, -0.2924458086490631, -0.25216519832611084, -0.5374941229820251, 0.020192645490169525, 0.16699205338954926, 0.03165880963206291, 0.07877378910779953, 0.26782864332199097, 0.3735763132572174, 0.10940364748239517, 0.22862820327281952, 0.31515467166900635, 0.1454455852508545, 0.28863686323165894, -0.5483580231666565, -0.10138516128063202, -0.027482595294713974, 0.08454244583845139, 0.0333450622856617, -0.02858637645840645, 0.031128596514463425, -0.09547415375709534, -0.12129972130060196, -0.10277383029460907, -0.11060040444135666, -0.031089037656784058, -0.1660151183605194, 0.07128528505563736, -0.21641699969768524, -0.11252395808696747, -0.08311966061592102, -0.1713491678237915, 0.04379050061106682, 0.06719570606946945, -0.10282671451568604, -0.11345943063497543, 0.09798094630241394, -0.07937012612819672, 0.012823816388845444, -0.0241366196423769, 0.008420726284384727, -0.07913989573717117, 0.08072689175605774, 0.04609077796339989, 0.09455150365829468, -0.06473010033369064, 0.014901379123330116, -0.03645795211195946, 0.11503035575151443, 0.0831003487110138, 0.09705225378274918, 0.11308873444795609, -0.013580148108303547, 0.1084849163889885, 0.08552642166614532, 0.06843779236078262, -0.06917683035135269, 0.022998450323939323, 0.07640904933214188, -0.050990138202905655, -0.2163780778646469, 0.09158327430486679, -0.28097423911094666, -0.10177075862884521, 0.00942774023860693, 0.04749884456396103, -0.158848375082016, 0.06023327261209488, -0.09170455485582352, 0.08654900640249252, 0.13090403378009796, 0.06755384802818298, 0.001735393307171762, -0.13937276601791382, -0.18601909279823303, 0.003955612424761057, -0.041063424199819565, -0.15223799645900726, -0.15006358921527863, -0.19725602865219116, 0.0460827611386776, -0.06833904981613159, -0.1925695389509201, -0.010831104591488838, -0.18033815920352936, -0.1449662446975708, 0.044872939586639404, -0.14525587856769562, 0.037206824868917465, -0.19390715658664703, -0.022259995341300964, -0.3268188238143921, -0.2573138177394867, 0.11365292966365814, 0.022089628502726555, 0.06781980395317078, 0.23431172966957092, -0.04791897535324097, 0.21331460773944855, -0.0029669716022908688, -0.07231384515762329, 0.15065544843673706, -0.10186141729354858, -0.13265107572078705, -0.12286192923784256, 0.14590740203857422, 0.11372768878936768, 0.09875182062387466, 0.21469423174858093, 0.13187792897224426, -0.09851634502410889, -0.024203233420848846, 0.013207271695137024, 0.047211796045303345, 0.08557520806789398, 0.18478825688362122, -0.11386602371931076, 0.14608846604824066, 0.12633319199085236, 0.23636311292648315, 0.31183311343193054, 0.29111021757125854, 0.22341355681419373, -0.131592258810997, -0.08551981300115585, -0.14170178771018982, -0.08763005584478378, -0.16304410994052887, -0.1053289994597435, -0.05043047294020653, -0.06500040739774704, -0.007661910727620125, 0.12194490432739258, -0.038718365132808685, -0.07232143729925156, -0.021815279498696327, -0.10957479476928711, -0.20336993038654327, 0.18960751593112946, 0.12182285636663437, 0.7480253577232361, -0.48839816451072693, -0.715720534324646, 1.0988194942474365, -0.33527249097824097, -0.1289655566215515, 0.1396910399198532, -0.19089050590991974, 0.16800345480442047, -0.011840234510600567, -0.4236997961997986, -1.059598445892334, -0.4299699664115906, 0.4476817548274994, -0.419696182012558, -0.06822620332241058, -0.6112424731254578, -0.5492364168167114, -0.15224744379520416, -0.20623816549777985, -0.26417824625968933, 0.7074958086013794, 0.14948855340480804, 0.1294284462928772, -0.11543481051921844, 0.6444499492645264, 0.7958616018295288, -0.0722597986459732, -0.24855369329452515, 0.5424262881278992, 0.3905901610851288, -0.04279978200793266, -0.11321217566728592, 0.015762124210596085, 0.05915903300046921, -7.865845680236816, -0.019745005294680595, -0.09161993116140366, -0.08788474649190903, 0.3609353005886078, -0.06929066777229309, 1.4707778692245483, -0.03884467855095863, 1.4703218936920166, -0.12235559523105621, -2.005967378616333, 0.02115260623395443, 0.3453260064125061, -0.026507627218961716, -0.021821092814207077, -0.11371301859617233, -0.002287487266585231, 0.1737874448299408, 0.045717503875494, 0.02213927172124386, 0.5384529829025269, 0.40249282121658325, 1.1047981977462769, 1.084556221961975, 0.20649825036525726, 0.010308307595551014, -0.25188738107681274, -0.10286235809326172, 0.3504682183265686, -0.03479909524321556, -0.05654757842421532, -0.25533783435821533, -0.2064352184534073, -0.08626950532197952, -0.040683500468730927, -0.19575238227844238, -0.10883331298828125, 0.03540404513478279, 0.1392357498407364, 0.1518554985523224, -0.03897801786661148, -0.0016708795446902514, 0.017035145312547684, -0.0642256885766983, -0.04842989891767502, -0.11171530932188034, 0.019312258809804916, 0.25572872161865234, 0.000747952435631305, -0.07282308489084244, 0.1280699223279953, -0.09626937657594681, -0.06679701805114746, -0.015326746739447117, 0.1447119414806366, 0.0062460037879645824, -0.3032166361808777, -0.09498517960309982, -0.2824114263057709, -0.11368174105882645, -0.11341481655836105, 0.12104165554046631, 0.1748262345790863, -0.03385402262210846, 0.08468043804168701, -0.3066454529762268, -0.06310851126909256, -0.21091364324092865, -0.25616130232810974, -0.34895071387290955, -0.30832746624946594, -0.2865539491176605, 0.15501806139945984, 0.3285311758518219, 0.5014205574989319, 0.17779392004013062, 0.34022653102874756, -0.052795570343732834, -0.22712719440460205, -0.37374404072761536, -0.09003426134586334, -0.07425881922245026, -0.31198763847351074, -0.12410169839859009, 0.00856219045817852, 0.0568985790014267, 0.3719829022884369, 0.4195975661277771, 0.3238072693347931, -0.040257975459098816, 0.08940983563661575, 0.02714960090816021, 0.049491193145513535, 0.0549657866358757, -0.10839919745922089, 0.08394932746887207, -0.019824737682938576, 0.07446545362472534, 0.07704382389783859, 0.10108320415019989, -0.043629661202430725, 0.024898577481508255, -0.20136824250221252, 0.07973144948482513, -0.031015638262033463, -0.17587406933307648, 0.10562173277139664, 0.07065773755311966, -0.07522854954004288, 0.14499984681606293, -0.11970995366573334, -0.12804554402828217, -0.0924002081155777, -0.0055236672051250935, 0.04380245506763458, 0.1012585237622261, -0.11800447106361389, 0.0013813290279358625, -0.14176036417484283, -0.16442391276359558, -0.01891959272325039, -0.055640000849962234, -0.11758207529783249, -0.11330841481685638, -0.07943346351385117, -0.18993651866912842, -0.025581859052181244, -0.11006846278905869, 0.008627980016171932, 0.09230397641658783, 0.14928071200847626, 0.13187344372272491, -0.22907640039920807, -0.1663842499256134, 0.07834351062774658, -0.0549822561442852, -0.15711691975593567, -0.15379837155342102, 0.01606321521103382, 0.013894923031330109, 0.06713208556175232, -0.19372840225696564, -0.01322416216135025, -0.021807527169585228, -0.1380617916584015, -0.1099158301949501, 0.009371272288262844, -0.028773318976163864, -0.18569804728031158, -0.027261806651949883, 0.08584791421890259, 0.07109353691339493, -0.09010224044322968, -0.08138419687747955, -0.035223137587308884, -0.008508721366524696, -0.01824508048593998, -0.03357322886586189, -0.006668210960924625, 0.04674359783530235, 0.12263363599777222, -0.3087015151977539, 0.15988688170909882, -0.1377572864294052, -0.03035241924226284, 0.08641907572746277, 0.07370369136333466, 0.12438677251338959, 0.17341937124729156, -0.11822374910116196, -0.09728509932756424, 0.0714520588517189, -0.007532425224781036, -0.19985231757164001, -0.08687353134155273, -0.026519374921917915, 0.022719478234648705, -0.018477240577340126, 0.24539212882518768, 0.4538373053073883, -0.19512154161930084, 0.05626700818538666, -0.10122290253639221, -0.1857578307390213, -0.0820857435464859, 0.39242613315582275, 0.5767481923103333, -1.4175633192062378, 0.3205838203430176, 0.06239243969321251, -0.36999592185020447, 0.45427581667900085, -0.07793675363063812, -0.0003533947456162423, -0.1945452094078064, 0.3073866665363312, 0.1973857432603836, -0.39968016743659973, 0.5264372229576111, 0.5496035218238831, -0.07964588701725006, -0.11325429379940033, -0.04641732573509216, -0.39825940132141113, -0.13735657930374146, 0.2928614020347595, -0.4196002781391144, 0.4396631717681885, 0.15933668613433838, 0.570988655090332, -0.6638782024383545, 0.3529529273509979, 0.4741984009742737, -0.5117775797843933, 0.18543915450572968, 0.2671591639518738, -0.15610317885875702, 0.39152127504348755, -0.43608126044273376, -0.33211106061935425, 0.8749542832374573, 1.3027406930923462, 1.1225559711456299, 0.7958328127861023, 0.6718817353248596, -0.017380831763148308, -0.12259421497583389, 0.31114038825035095, -0.32009565830230713, 0.01259584166109562, -0.5529219508171082, -0.4705910086631775, -0.6392244100570679, 0.0535840280354023, 0.2645477056503296, 0.0028869397938251495, -1.1154818534851074, -0.20686396956443787, 0.39692723751068115, 0.051382482051849365, 2.3484601974487305, 2.252840757369995, -0.32711392641067505, 1.0813112258911133, 1.0841450691223145, -0.3883529305458069, -0.44341394305229187, -0.2774852216243744, -0.11151572316884995, 0.12303699553012848, -0.4073902666568756, -0.2764711081981659, -0.22234979271888733, -0.1719338297843933, -0.24769732356071472, -0.08616569638252258, -0.5334851741790771, -0.16404078900814056, -0.7891132235527039, 0.10746323317289352, -1.7509779930114746, 0.130140021443367, -0.00560886412858963, -0.25638672709465027, 0.2929973602294922, 0.2031179815530777, 0.6877286434173584, -0.7559552788734436, -0.034959401935338974, 0.21561117470264435, -0.12396823614835739, 0.24819931387901306, -0.588796079158783, -0.07879535853862762, 0.12549109756946564, 0.0589718259871006, 0.7769867777824402, 0.7072601914405823, 1.0922058820724487, 0.15132251381874084, -0.031252551823854446, -0.05127698928117752, 0.01245244313031435, 0.0743381455540657, -0.02509075030684471, -0.08090957999229431, 0.19098682701587677, -0.05625241622328758, -0.03457123786211014, 0.05330728366971016, -0.02341296337544918, 0.23958298563957214, -0.06294281035661697, -0.05190953239798546, -0.19258294999599457, -0.0980975329875946, -0.3366581201553345, -0.3267875015735626, -0.10020848363637924, -0.02079981006681919, 0.074063241481781, -0.0019667414017021656, 0.011201846413314342, 0.27952468395233154, 0.14751242101192474, 0.018303973600268364, 0.04720302298665047, 0.08567273616790771, 0.020246228203177452, 0.040845710784196854, -0.099012590944767, 0.08346656709909439, -0.09756294637918472, 0.02864735573530197, -0.1566973626613617, -0.07602299749851227, -0.13005727529525757, -0.2997851073741913, -0.29597824811935425, 0.10694011300802231, -0.28560715913772583, -0.3599861264228821, 0.27232909202575684, 0.3108628988265991, 0.5266967415809631, 0.3798491060733795, 0.2879549562931061, -0.0991455540060997, -0.1393193155527115, -0.10072196274995804, -0.12914611399173737, -0.2220146209001541, -0.11073840409517288, -0.05773741751909256, 0.11589841544628143, 0.05724224075675011, 0.2694973945617676, 0.03039253130555153, 0.1275048553943634, -0.03470220789313316, 0.01092334184795618, -0.24850283563137054, -0.13145998120307922, -0.1938944160938263, -0.00530910212546587, -0.008529056794941425, -0.035152047872543335, 0.23747606575489044, 0.29271700978279114, 0.10959833860397339, 0.18410639464855194, -0.2350127249956131, -0.11398899555206299, -0.04460965469479561, -0.05527753755450249, 0.09395598620176315, -0.08382957428693771, 0.025945857167243958, -0.1908150613307953, -0.3021737039089203, -0.24051441252231598, -0.06000314652919769, -0.053839314728975296, 0.02471005730330944, 0.036099500954151154, 0.09593074023723602, 0.06632371991872787, -0.03491057828068733, 0.12970326840877533, -0.14967475831508636, -0.033863067626953125, 0.01830902136862278, -0.19690579175949097, 0.09981119632720947, -0.12991562485694885, -0.11518446356058121, -0.047772813588380814, -0.21767234802246094, -0.1491943895816803, 0.1483122855424881, 0.01339288055896759, 0.030499935150146484, -0.06779167801141739, 0.3488386571407318, 0.1067645475268364, 0.17590075731277466, 0.31772932410240173, -0.012980282306671143, -0.19158537685871124, -0.10759226232767105, 0.0309104323387146, -0.06286201626062393, -0.14086736738681793, -0.23030345141887665, 0.06579497456550598, -0.06438319385051727, 0.12819676101207733, -0.05091552436351776, -0.07863027602434158, -0.0036901026032865047, 0.006597228813916445, -0.1420116424560547, -0.14366178214550018, 0.140774667263031, 0.036171283572912216, 0.042429789900779724, 0.4716290533542633, -0.11008145660161972, -0.2096864879131317, -0.5371285080909729, -0.05458014830946922, -0.2492569535970688, 0.4378300607204437, -0.40404683351516724, -0.14956724643707275, -0.8174605369567871, -0.23366743326187134, 0.6178717613220215, -0.09513900429010391, 0.19633221626281738, 0.029180260375142097, 0.06117834150791168, 0.12034660577774048, -0.36458978056907654, -0.20390667021274567, -0.2859070599079132, -0.20870637893676758, -0.44291579723358154, -0.011815734207630157, -0.2133147120475769, 1.0941241979599, 0.3513606786727905, 0.2643619477748871, -0.0026696049608290195, -0.05707434564828873, -0.3148100674152374, 0.44075676798820496, 0.085346519947052, -0.20967978239059448, 0.22288575768470764, -1.5366343259811401, 0.024134308099746704, 0.7105764746665955, 0.11125786602497101, 1.0109570026397705, 0.43757718801498413, 0.5508902072906494, 0.16674429178237915, 0.2224610149860382, 0.18391606211662292, -0.6377971768379211, 0.12718161940574646, -0.0016457565361633897, -0.0730210691690445, 0.22600924968719482, 0.061300694942474365, 0.20170265436172485, 0.061487965285778046, -0.2994491755962372, -0.18955399096012115, 1.451208472251892, 0.6620898842811584, 1.6153374910354614, 1.0163220167160034, 0.9562903046607971, -0.6085914969444275, -0.029540155082941055, -0.14901824295520782, 0.26879099011421204, -0.22988399863243103, -0.024862581863999367, 0.06393976509571075, 0.0900832861661911, 0.009618065319955349, -0.14027102291584015, 0.17866754531860352, 0.0208932776004076, -0.04679524526000023, -0.008484816178679466, 0.001049534184858203, 0.05422075837850571, 0.08313237875699997, 0.05719778314232826, 0.06067407876253128, -0.04084576293826103, 0.009573531337082386, 0.203230619430542, 0.22638309001922607, -0.2025507688522339, -0.19258874654769897, -0.24693669378757477, -0.22685302793979645, -0.2303655445575714, -0.2909964621067047, 0.07100410759449005, 0.08404497802257538, 0.13919225335121155, 0.09081391990184784, 0.06636985391378403, -0.0076684495434165, -0.019102174788713455, 0.04358451068401337, 0.12632152438163757, -0.06552553921937943, -0.11375084519386292, -0.0013020179467275739, 0.08574854582548141, -0.06792044639587402, 0.07072920352220535, -0.09835731983184814, -0.11166176944971085, -0.05225982144474983, -0.15533386170864105, -0.3035803437232971, -0.27876582741737366, -0.007933349348604679, 0.1563209742307663, -0.4254378080368042, -0.12189161777496338, -0.0483829490840435, -0.2678132653236389, -0.22608277201652527, -0.21733343601226807, -0.17498859763145447, -0.018738407641649246, 0.01038692519068718, 0.05228808522224426, -0.23806174099445343, 0.32913240790367126, -0.14148151874542236, 0.02748355083167553, 0.12230609357357025, -0.032344359904527664, 0.09827183932065964, 0.11904836446046829, 0.19594909250736237, 0.08167342841625214, 0.005610147025436163, 0.013496396131813526, 0.1368945688009262, -0.026106063276529312, -0.10355997830629349, -0.10038411617279053, -0.12332066148519516, -0.06717545539140701, -0.12278898060321808, -0.19171810150146484, -0.03552248701453209, 0.05573422834277153, 0.08478765934705734, 0.04363152012228966, -0.06386561691761017, 0.09181790053844452, -0.6530985236167908, 0.06268378347158432, 0.01876211166381836, -0.006230821367353201, 0.09244774281978607, 0.008454686030745506, 0.03644373267889023, 0.11384928226470947, 0.08287647366523743, 0.08282515406608582, 0.04288686066865921, -0.06501896679401398, 0.10120357573032379, -0.011124229989945889, 0.13990095257759094, 0.14724034070968628, -0.10195021331310272, 0.11988699436187744, 0.0020339239854365587, -0.056363996118307114, -0.012166793458163738, -0.001432879944331944, 0.04540363326668739, 0.10765279829502106, -0.04449959099292755, -0.12580770254135132, -0.1373303234577179, -0.053606800734996796, -0.031118234619498253, -0.2459530532360077, -0.03067830018699169, -0.05206804722547531, 0.11388660967350006, 0.16227488219738007, 0.07868603616952896, 0.19792070984840393, 0.02465016022324562, -0.2619045674800873, -0.06566862761974335, -0.07510571926832199, 0.129886195063591, -0.05359192192554474, -0.1130523756146431, -0.28928589820861816, -0.2499876171350479, -0.012136713601648808, -0.05682067945599556, 0.022543715313076973, -0.024958794936537743, -0.11499159783124924, -0.11946595460176468, -0.14326655864715576, -0.21673649549484253, -0.12886419892311096, 0.1414187252521515, -0.26378998160362244, -0.2155163437128067, -0.09581051766872406, 0.11651036888360977, -0.08947019279003143, -0.09215754270553589, 0.1429765373468399, 0.1758420765399933, 0.00048371427692472935, -0.17461110651493073, 0.02680407464504242, -0.16158664226531982, 0.15760377049446106, -0.019495239481329918, 0.01752038113772869, -0.12094442546367645, -0.01801147498190403, -0.16074882447719574, -0.05359896272420883, -0.6727874875068665, -0.1255265325307846, -0.8284701108932495, -0.1621253788471222, 0.20415917038917542, -0.26120761036872864, -0.3064115643501282, -0.3604252338409424, -0.028391312807798386, 0.2030705362558365, -0.4432636499404907, 0.16760209202766418, -0.03640564903616905, 0.24874860048294067, 0.25283294916152954, 0.23019912838935852, 0.29877525568008423, 0.13895829021930695, -0.11874280869960785, 0.04230576008558273, -0.0005693662096746266, -0.13998955488204956, 0.20549823343753815, 0.368325799703598, 0.4486332833766937, -0.09510354697704315, -0.01954982429742813, 0.3293576240539551, 0.24015967547893524, -0.3752937614917755, 0.0655556172132492, -0.08078005909919739, 0.4357368052005768, 0.4462259113788605, 0.03636447712779045, 0.18713533878326416, 0.04737527668476105, 0.7097247838973999, -0.06939437985420227, -0.2572067677974701, -0.021339839324355125, -0.38623011112213135, -0.5803070068359375, 0.17993506789207458, 0.18942654132843018, 0.12902802228927612, 0.016161536797881126, 0.46650224924087524, 0.20052184164524078, -0.007844379171729088, -0.011218808591365814, 0.1429259479045868, -0.022059589624404907, 0.6505917310714722, 1.0481053590774536, 0.3363494575023651, 0.6205507516860962, 0.9472432732582092, 0.10501721501350403, -0.1825893521308899, -0.051697809249162674, 0.0002031426120083779, -0.16225409507751465, -0.014007827267050743, -0.0037985588423907757, -0.03985235095024109, 0.03347485139966011, -0.08463551104068756, 0.021185284480452538, -0.03344402834773064, -0.0361238457262516, 0.012514356523752213, 0.030643334612250328, -0.01220817118883133, 0.6298356652259827, 0.014598410576581955, 0.017794156447052956, 0.02292807586491108, 0.033999282866716385, -0.010006975382566452, 0.09071338921785355, 0.006214766297489405, -0.03596843406558037, -0.04874693974852562, 0.052526071667671204, -0.14914827048778534, 0.08004180341959, -0.05429387837648392, -0.05468176305294037, -0.04252476990222931, 0.016666023060679436, -0.013752170838415623, -0.1615539789199829, 0.07355863600969315, -0.029896235093474388, 0.03612969070672989, -0.030266059562563896, 0.13445492088794708, -0.1795729100704193, -0.010399552062153816, 0.07593607902526855, 0.0008502323762513697, 0.15077537298202515, 0.09104139357805252, 0.4641118049621582, -0.02911647967994213, 0.017253555357456207, 0.018817920237779617, 0.057527683675289154, 0.005294607952237129, 0.08905354887247086, -0.005930186249315739, -0.0997234508395195, -0.044552043080329895, -0.048227354884147644, -0.01828564517199993, 0.02572006918489933, 0.09327361732721329, 0.15272431075572968, 0.1784941405057907, 0.24348600208759308, 0.33760419487953186, -0.07991590350866318, -0.13003875315189362, 0.052743732929229736, -0.16425460577011108, 0.026260770857334137, -0.13269326090812683, -0.24939383566379547, -0.014254556968808174, -0.09238869696855545, 0.465471088886261, 0.017184654250741005, 0.07261030375957489, -0.049884021282196045, -0.009523089043796062, 0.09132000803947449, -0.04392579570412636, 0.021074334159493446, -0.23938828706741333, -0.11259841173887253, 0.28644707798957825, 0.2937231659889221, 0.2879997193813324, 0.18836526572704315, 0.0425521545112133, 0.01575510948896408, 0.03799165040254593, 0.03509480133652687, -0.15509766340255737, -0.21000897884368896, -0.18387354910373688, 0.029772361740469933, 0.08932648599147797, -0.04872460290789604, 0.11072596907615662, 0.006554687395691872, 0.09478569775819778, 0.16311471164226532, 0.11487775295972824, 0.21004720032215118, 0.1954183131456375, 0.27260029315948486, 0.12720824778079987, -0.2553202509880066, -0.08073188364505768, 0.022477339953184128, -0.0666535496711731, -0.10780856758356094, -0.0923859253525734, 0.10607296228408813, 0.13182151317596436, 0.11494907736778259, 0.20015741884708405, 0.0356271006166935, 0.007029410917311907, 0.2056751847267151, 0.01892877370119095, -0.023619411513209343, -0.08494217693805695, -0.08446797728538513, -0.24490997195243835, -0.03383016586303711, 0.05469871684908867, 0.03012523055076599, 0.019875669851899147, 0.0013211944606155157, 0.17077907919883728, -0.06857127696275711, -0.06404229998588562, -0.03597574308514595, -0.0302082821726799, -0.0009164403309114277, -0.17105965316295624, 0.6885873079299927, -0.03829825296998024, -0.02617211639881134, 0.005553580354899168, -0.05694247782230377, -0.0849170833826065, 0.022174639627337456, 0.06939443945884705, 0.019753312692046165, 0.08240856975317001, 0.050909195095300674, 0.21922089159488678, 0.03433050587773323, -0.02240794710814953, -0.04464748129248619, -0.044343214482069016, -0.018083058297634125, -0.09079226851463318, -0.38296517729759216, 0.06090164557099342, -0.0008093897486105561, -0.1456623375415802, 0.20782910287380219, 0.09152711182832718, 1.217376470565796, -0.7522408366203308, -0.07051441073417664, -0.21363411843776703, 0.8664028644561768, 0.07025261223316193, 0.40634921193122864, -0.3776884377002716, -0.29060524702072144, -0.12859435379505157, 0.06834238767623901, -0.29785120487213135, -0.4181273579597473, -0.2244565784931183, -0.16325898468494415, 0.3201920688152313, 0.22811417281627655, -0.3238712549209595, -0.22068282961845398, 0.01892153173685074, -0.3922576606273651, -0.26219743490219116, 0.4020991921424866, -0.23874881863594055, 0.11810223758220673, -0.06951592862606049, -0.1710147112607956, -0.4746108055114746, -0.10899611562490463, -0.5176319479942322, -0.26027822494506836, -0.009223304688930511, -0.23011551797389984, 0.3323289752006531, -0.373171865940094, -0.05709957331418991, 0.03752734139561653, 0.26399388909339905, -0.06369685381650925, 0.32987141609191895, 0.16182130575180054, -0.11601878702640533, -0.03221119940280914, 1.0068491697311401, 0.026992512866854668, -0.0285866130143404, 0.009639628231525421, -0.15964585542678833, 0.11590069532394409, 0.0028699429240077734, -0.2789076864719391, -0.08984708786010742, 0.05254914239048958, 0.24878640472888947, 0.06746362149715424, 0.6385048031806946, 0.33858075737953186, 1.2119008302688599, 0.9942389130592346, 0.010952256619930267, -0.06524955481290817, 0.2635352909564972, -0.5216189622879028, 0.15833668410778046, 0.27391374111175537, -0.01887226104736328, -0.04018998518586159, -0.026276396587491035, -0.0922512412071228, -0.04107776656746864, -0.2812502980232239, -0.003828351851552725, -0.011817277409136295, 0.004795870278030634, -0.015287311747670174, -0.07137007266283035, -0.1288529336452484, 0.011382846161723137, 0.0231257826089859, 0.04359457269310951, 0.08731067925691605, 0.018236730247735977, 0.16734974086284637, 0.035577211529016495, 0.07718193531036377, 0.010664226487278938, 0.1741761714220047, 0.17744487524032593, 0.920337975025177, -0.00022052798885852098, 0.0002396649360889569, -0.0018710276344791055, -0.004448345862329006, -0.01768517680466175, -0.10054149478673935, -0.021589670330286026, 0.026443105190992355, 0.04870779812335968, 0.017434732988476753, -0.026754960417747498, 0.02035842277109623, -0.020734265446662903, 0.00859748013317585, 0.008125300519168377, -0.0008513981592841446, -0.1024223268032074, -0.359948992729187, 0.014237336814403534, 0.012643363326787949, -0.011180218309164047, 0.05470307543873787, -0.07784783095121384, -0.11735370010137558, 0.06373341381549835, -0.00760525930672884, 0.04668116569519043, -0.009349856525659561, 0.22307637333869934, 0.4813409447669983, -0.0008028173469938338, 0.004521004855632782, 0.012615296058356762, -0.008492610417306423, -0.03517431765794754, -0.10259446501731873, -0.13212430477142334, 0.07687963545322418, -0.04355255141854286, 0.10965567082166672, -0.23104171454906464, -0.09911803156137466, -0.24025176465511322, -0.057117100805044174, -0.2169388085603714, 0.02938739024102688, -0.10353324562311172, 0.09368100017309189, -0.0667668804526329, -0.11269737035036087, 0.10262400656938553, -0.03695874288678169, 0.17118330299854279, -0.1663661003112793, -0.0941648781299591, -0.06470847129821777, 0.0626753568649292, -0.20013369619846344, -0.4284713864326477, 0.37033694982528687, -0.1588575690984726, 7.6798525697086e-05, -0.02441978268325329, 0.07602670788764954, 0.21992875635623932, -0.02907506749033928, -0.16590940952301025, -0.17804408073425293, 0.1136055588722229, -0.16679345071315765, -0.21960341930389404, -0.1506938636302948, -0.013290122151374817, 0.138498455286026, -0.11989906430244446, -0.09487284719944, -0.3275968134403229, 0.12642695009708405, -0.12041712552309036, -0.1950092911720276, -0.20089983940124512, -0.23375381529331207, 0.043993908911943436, -0.21150168776512146, -0.1810203492641449, -0.29453274607658386, 0.008100555278360844, -0.49428215622901917, -0.319682240486145, 0.49141865968704224, -0.01786692626774311, 0.04103958234190941, 0.004530947655439377, -0.19414253532886505, 0.24993835389614105, 0.22398881614208221, -0.07566508650779724, 0.09376637637615204, 0.07908285409212112, -0.2056199163198471, -0.28982651233673096, 0.04776845872402191, -0.471295565366745, -0.08570688962936401, -0.24818891286849976, 0.4143747091293335, -0.2764003872871399, 0.015676375478506088, -0.2454749047756195, -0.05795830860733986, -0.2566070556640625, 0.2561376988887787, 0.09982486069202423, -0.2103024274110794, -0.300787091255188, 0.012055139057338238, -0.35480040311813354, -0.49237143993377686, -0.2514493465423584, -0.003253008471801877, -0.04018029198050499, -0.09197073429822922, -0.06411293894052505, -0.08155696094036102, 0.10799601674079895, 0.24728305637836456, -0.23096609115600586, -0.015585248358547688, -0.16988679766654968, -0.18820515275001526, -0.2717943489551544, -0.8138960003852844, -1.177884817123413, -0.33584389090538025, -0.5295248031616211, 0.07504858076572418, 0.3608698546886444, -0.3340977132320404, 0.5625457167625427, -0.2052290290594101, -0.21723447740077972, -0.3953465521335602, 0.04503270238637924, 0.0182606540620327, 0.012298542074859142, 0.09600281715393066, 0.012253968976438046, 0.33178630471229553, 0.39235663414001465, 0.03389362990856171, 0.2610432505607605, -0.23604248464107513, -0.06732078641653061, -0.17512203752994537, -0.11340633034706116, -0.09917958080768585, 0.5821135640144348, 0.6595978736877441, 0.14058387279510498, 0.7555195093154907, 0.43091005086898804, -0.1123381182551384, -0.1340242475271225, -0.041790034621953964, -0.31439104676246643, 0.20932967960834503, 0.44059863686561584, -0.06213684752583504, 0.7010700702667236, 0.09238049387931824, 0.723731279373169, 0.8921037912368774, 0.4089216887950897, 0.47066229581832886, 0.8742148280143738, 0.7819977402687073, 0.4294845759868622, -0.05833621695637703, 0.22959460318088531, -0.03443383798003197, -0.18495391309261322, -0.5163016319274902, -0.06842810660600662, -0.2472701519727707, -0.6621847152709961, -0.8205589652061462, 0.4561205208301544, -0.2914135158061981, 1.5134434700012207, 1.6945178508758545, 2.663616180419922, -0.38663822412490845, -0.2641373574733734, -0.5395035743713379, -0.6772059798240662, -1.3265104293823242, 0.13217510282993317, 0.11948803812265396, 0.1590777337551117, 0.2177932858467102, 0.11222893744707108, 0.07612881809473038, -0.04132046550512314, -0.03420356661081314, -0.0665314793586731, -0.02616475336253643, -0.06998514384031296, -0.10000605881214142, -0.006433413829654455, -0.16985496878623962, -0.06840536743402481, -0.011695574037730694, 0.15466222167015076, 0.1028968095779419, -0.15127025544643402, -0.16074001789093018, -0.038360126316547394, 0.03626000136137009, -0.009531897492706776, -0.04454987868666649, -0.04405702278017998, 0.019925381988286972, 0.044001828879117966, 0.010273954831063747, 0.03834650665521622, 0.003667865414172411, 0.04672490060329437, -0.18008890748023987, -0.0892983078956604, -0.06505753099918365, -0.1793992966413498, 0.009440348483622074, -0.030551979318261147, 0.039713408797979355, 0.019922420382499695, 0.0330527201294899, -0.059036243706941605, -0.1027349978685379, -0.20221158862113953, 0.09360282868146896, -0.052679434418678284, 0.0780576765537262, 0.20143835246562958, 0.01854570396244526, 0.18092259764671326, 0.04607253149151802, 0.31203460693359375, 0.15727195143699646, 0.06450990587472916, 0.35023173689842224, -0.006688748486340046, -0.007980169728398323, 0.0754266083240509, -0.1458774358034134, -0.09441287815570831, 0.14149552583694458, -0.18044418096542358, -0.17321674525737762, -0.004058273043483496, 0.02476641908288002, 0.04537806287407875, -0.08993077278137207, 0.22777649760246277, 0.20208151638507843, -0.0935240238904953, -0.06976766884326935, 0.26052549481391907, 0.02325679175555706, 0.013231903314590454, 0.0720178559422493, 0.0032297319266945124, -0.1305992305278778, -0.08576454967260361, -0.17240990698337555, 0.07052289694547653, -0.018204733729362488, -0.08896540105342865, -0.13062654435634613, 0.12928031384944916, 0.03541475906968117, -0.17742495238780975, -0.034043896943330765, -0.0802430510520935, -0.038987062871456146, 0.008974610827863216, 0.0267028771340847, -0.10875296592712402, 0.06193878874182701, 0.11996493488550186, -0.04296359792351723, 0.04671644791960716, 0.08368966728448868, -0.02252388745546341, 0.06812350451946259, 0.004394746385514736, -0.22488552331924438, 0.00891052559018135, 0.032595351338386536, -0.06094115227460861, -0.06566258519887924, 0.010392657481133938, 0.14594227075576782, -0.18477295339107513, -0.28593623638153076, 0.03043118678033352, 0.06213299557566643, 0.09895531833171844, 0.023765182122588158, -0.10101506114006042, 0.010044978931546211, 0.07516033202409744, 0.036779362708330154, 0.024645691737532616, 0.25807225704193115, 0.09318516403436661, -0.22486385703086853, 0.06243891641497612, -0.0039475178346037865, 0.0736619159579277, 0.03413739427924156, -0.14607137441635132, 0.17377644777297974, 0.28995323181152344, 0.09356760233640671, 0.19921953976154327, 0.14824892580509186, 0.23688867688179016, -0.08327426016330719, -0.042948994785547256, 0.008997252210974693, -0.09363243728876114, -0.17196929454803467, 0.08841130137443542, 0.20617122948169708, -0.10818074643611908, 0.07371438294649124, -0.17945563793182373, 0.13166043162345886, -0.0843958631157875, -0.11556597799062729, -0.026386182755231857, -0.13987812399864197, 0.07264577597379684, -0.3039855360984802, -0.14337293803691864, 0.18082062900066376, 0.16250106692314148, -0.2615576386451721, -0.06990303844213486, -0.14890040457248688, 0.060104355216026306, -1.004683494567871, -0.7248356342315674, -0.521763026714325, -0.35314202308654785, 0.23146924376487732, -0.21176309883594513, 0.2826761305332184, 0.23458141088485718, 0.3785352408885956, 0.22376692295074463, 0.2242969423532486, 0.2872251868247986, 0.0921219065785408, -0.35468289256095886, 0.16768454015254974, -0.3699093163013458, -0.3172283470630646, 0.11563274264335632, -0.2264591008424759, -0.29350724816322327, 0.43271151185035706, -0.09420854598283768, 0.2308950424194336, 0.024245088919997215, 0.0748688355088234, 0.1924266517162323, 0.910727858543396, -0.5732161402702332, 0.2431553155183792, -0.6042413711547852, -0.12236516922712326, 0.33892354369163513, -0.01895477995276451, 0.19707949459552765, -0.14534015953540802, -0.43566757440567017, -0.14075300097465515, -0.27204349637031555, 0.059609320014715195, -0.2888021767139435, 0.22256246209144592, -0.5101404786109924, -0.02577701024711132, -0.01716478541493416, 0.014588896185159683, -0.15975114703178406, 0.0068493131548166275, 0.49987316131591797, 0.021272970363497734, -0.12450352311134338, -0.11408281326293945, 0.3360837996006012, 0.00768022146075964, -0.19149042665958405, 0.07860130816698074, 0.9271962642669678, 0.6161580681800842, 0.9351937174797058, 0.5154122114181519, 1.3160711526870728, 0.0739612951874733, -0.2780004143714905, -0.19420225918293, 0.13001957535743713, 0.16260437667369843, 0.12374558299779892, -0.03417116031050682, 0.0015624804655089974, -0.12176812440156937, -0.16087494790554047, -0.026961512863636017, -0.07851813733577728, 0.00294492463581264, 0.022056324407458305, 0.02094932459294796, 0.1118931770324707, 0.13073864579200745, -0.09844183921813965, -0.01643534004688263, -0.0744815543293953, 0.06452485918998718, 0.10865195095539093, 0.14925728738307953, -0.07455430179834366, 0.05470286309719086, 0.10541550815105438, 0.136276513338089, -0.00440257741138339, -0.006728389300405979, 0.10092385858297348, 0.11153663694858551, 0.15644696354866028, 0.10435028374195099, -0.019275112077593803, -0.16069814562797546, 0.007449988275766373, -0.15194807946681976, -0.06535518169403076, 0.13253097236156464, -0.11956816166639328, 0.04976649582386017, -0.09519720822572708, -0.18013034760951996, -0.21259893476963043, -0.08685312420129776, -0.10977660119533539, -0.2472125142812729, -0.12792445719242096, -0.13142909109592438, -0.2106941193342209, -0.13586053252220154, -0.10875611752271652, 0.0936339721083641, -0.08480585366487503, 0.12660850584506989, 0.021921543404459953, 0.030000409111380577, 0.09976864606142044, -0.17478223145008087, -0.1057712584733963, -0.08870033174753189, -0.040776848793029785, -0.11045283079147339, -0.1892210692167282, 0.12368398904800415, 0.07035158574581146, -0.09384042769670486, -0.10749510675668716, 0.12519113719463348, -0.10932503640651703, -0.13019682466983795, -0.16286978125572205, 0.07467776536941528, 0.10826540738344193, 0.2217978835105896, -0.07585716247558594, -0.15602876245975494, 0.1437249630689621, 0.03870493173599243, -0.16734114289283752, -0.26849696040153503, 0.09120970219373703, 0.018298370763659477, 0.030043624341487885, -0.011799640953540802, -0.06032070145010948, 0.05014904960989952, 0.006239317357540131, -0.02150934748351574, -0.11581035703420639, -0.06831545382738113, 0.038579750806093216, 0.03189998120069504, -0.0012751994654536247, -0.12765346467494965, -0.022157736122608185, 0.12231016159057617, 0.16816852986812592, 0.15998442471027374, -0.052626706659793854, -0.03805918991565704, 0.00036525915493257344, -0.2071867734193802, -0.11551770567893982, -0.262146532535553, -0.1838289350271225, -0.3493925929069519, -0.08034231513738632, 0.011432026512920856, -0.05668671056628227, 0.14287248253822327, 0.18723487854003906, 0.20154693722724915, -0.1787785440683365, 0.021183917298913002, -0.14869064092636108, -0.02550954930484295, 0.17180238664150238, 0.1262206882238388, 0.022644704207777977, -0.06346811354160309, 0.057562507688999176, -0.04891355335712433, 0.05808455869555473, -0.019434373825788498, -0.04582042992115021, 0.1381041556596756, 0.054474759846925735, 0.14927732944488525, 0.19232133030891418, 0.0802355632185936, -0.10021499544382095, -0.063890740275383, -0.048393577337265015, 0.007764964364469051, -0.1344747096300125, 0.2542177736759186, -0.08391221612691879, -0.11791208386421204, -0.07417704164981842, -0.014674902893602848, 0.1513291746377945, 0.24124258756637573, 0.09266025573015213, 0.03203272819519043, 0.15789301693439484, -0.21096257865428925, 0.09215743094682693, -0.2526998221874237, -0.064486064016819, 0.10067182779312134, 0.09728362411260605, 0.1643034666776657, 0.1793219894170761, -0.020833490416407585, -0.0977206602692604, -0.18614156544208527, 0.10808850079774857, 0.022806022316217422, 0.12491852790117264, 0.9072428941726685, 0.07451854646205902, -0.7559459209442139, -0.14528943598270416, 0.0003821519494522363, 0.6605720520019531, -0.5911760330200195, -0.140853613615036, 0.139113187789917, 0.16890165209770203, 0.422241747379303, -0.0846128761768341, 0.2923600375652313, 0.3654775619506836, 0.15009526908397675, 0.05209955945611, -0.1138531044125557, -0.07879792898893356, 0.1236986294388771, -0.22517946362495422, -0.3370724320411682, 0.3904810845851898, -0.06931480020284653, -0.38884180784225464, 0.19008676707744598, -0.4801023006439209, 0.1811462938785553, -0.172079935669899, -0.4949227273464203, 0.682857096195221, 0.1802968978881836, 0.24045348167419434, -0.19538624584674835, -0.4419640004634857, 0.238009974360466, 0.08841083198785782, -0.15903286635875702, 1.0925512313842773, -0.16352704167366028, -0.12203875929117203, -0.12615545094013214, 0.5525760054588318, -0.10389091074466705, -0.5535061955451965, 0.04553772136569023, 0.5204018950462341, -0.016148990020155907, 0.15102353692054749, -0.033045027405023575, -0.11940882354974747, 0.013759550638496876, -0.40348294377326965, -0.09704817086458206, 0.25000396370887756, 0.11052003502845764, 0.7619465589523315, -0.14634113013744354, 0.7349913716316223, 0.5004841089248657, 1.189766764640808, -0.2848680019378662, -0.11607049405574799, 0.12192340940237045, 0.27289894223213196, 0.2939431965351105, -0.1018703356385231, 0.08135587722063065, 0.12447237968444824, -0.04078027606010437, -0.25172361731529236, -0.027520272880792618, -0.2089764028787613, -0.08522450178861618, -0.09375905990600586, 0.13606604933738708, 0.18262991309165955, -0.1378341019153595, -0.040350720286369324, 0.15803755819797516, 0.07199715077877045, 0.14300324022769928, -0.13029177486896515, 0.16542023420333862, 0.031668856739997864, 0.021795881912112236, 0.0025653685443103313, 0.021055271849036217, 0.14075502753257751, 0.01868770271539688, -0.0028056709561496973, 0.09025593101978302, -0.2917030155658722, -0.2467227429151535, -0.05613359808921814, 0.028070606291294098, -0.0531277060508728, 0.10069726407527924, -0.06086243316531181, -0.10764186829328537, 0.2768283784389496, 0.19686304032802582, 0.005665377248078585, -0.020774783566594124, 0.16738004982471466, 0.24333032965660095, 0.35150566697120667, 0.19180476665496826, -0.05946217477321625, 0.03973834216594696, -0.21034346520900726, -0.21888473629951477, -0.34177637100219727, -0.13108256459236145, -0.054357025772333145, 0.04870021343231201, -0.0770442858338356, -0.14044228196144104, -0.05258769541978836, -0.2748369872570038, 0.001327913603745401, -0.00335960416123271, 0.09248992800712585, 0.02556118369102478, 0.09845373779535294, 0.586387038230896, -0.17123225331306458, -0.08632528781890869, -0.04011262208223343, -0.13587714731693268, -0.04294031485915184, -0.26449528336524963, 0.22081124782562256, 0.22462429106235504, -0.2286013513803482, 0.018143169581890106, -0.10407257825136185, -0.19428661465644836, 0.1394244283437729, 0.22037000954151154, 0.21880511939525604, 0.012463855557143688, 0.12335985153913498, 0.16292135417461395, -0.009569376707077026, 0.08935254067182541, -0.06477738171815872, 0.25308334827423096, -0.019195446744561195, 0.18824642896652222, -0.10450950264930725, 0.010910369455814362, 0.22678129374980927, -0.14822137355804443, 0.409593790769577, 0.2007782906293869, -0.054513268172740936, 0.08054392039775848, -0.07441753149032593, 0.030634429305791855, -0.06815483421087265, -0.05359088256955147, 0.06252607703208923, 0.04269759729504585, 0.05950283631682396, 0.03755929693579674, -0.08544448763132095, 0.3029886782169342, -0.12167780101299286, -0.12583968043327332, -0.1047486886382103, -0.10917540639638901, 0.08140043914318085, 0.1620955616235733, 0.039873603731393814, -0.18941116333007812, -0.11802811920642853, -0.26023751497268677, -0.24845075607299805, 0.1259564459323883, -0.05578252673149109, -0.04882568120956421, -0.12321021407842636, -0.2656356394290924, -0.2550162672996521, -0.074180968105793, 0.02878124825656414, 0.02708989381790161, -0.03312201052904129, -0.08224788308143616, -0.08294590562582016, 0.13877063989639282, -0.04025436192750931, 0.008087646216154099, 0.0025926181115210056, 0.06416182965040207, 0.005516478326171637, 0.24163198471069336, -0.19452545046806335, -0.11575319617986679, -0.13181596994400024, -0.03409780189394951, -0.10649095475673676, 0.14316608011722565, -0.11639474332332611, -0.04234329238533974, 0.09107407927513123, -0.200808584690094, 0.0473652258515358, -0.21271869540214539, -0.06071470305323601, -0.11372467875480652, -0.08991159498691559, 0.02326585352420807, -0.02094622142612934, 0.12658146023750305, 0.05769498646259308, 0.19577625393867493, -0.1982848197221756, 0.1978858858346939, -0.049339331686496735, 0.7605133056640625, -0.09701904654502869, -0.6407585740089417, -0.6036209464073181, 0.06314929574728012, 0.38627782464027405, 0.5655362606048584, -0.22137607634067535, -0.11368893086910248, -0.37880757451057434, 0.19133082032203674, -0.3405153453350067, -0.35887831449508667, -0.2736736536026001, -0.3398626744747162, 0.262337863445282, 0.07240000367164612, 0.24796566367149353, -0.11123906075954437, -0.10539685934782028, -0.11801384389400482, -0.4246719479560852, 0.14878496527671814, -0.22616465389728546, 0.1251136064529419, -0.3725995421409607, -0.5329341888427734, 0.4533763825893402, -0.298105925321579, 0.045456916093826294, -0.42742571234703064, -0.16310401260852814, 0.3876064419746399, 0.13761141896247864, 0.18957772850990295, -0.24556034803390503, -0.07048246264457703, -5.6794328689575195, 0.06133980304002762, 0.39168602228164673, 0.18412931263446808, -0.05175010859966278, -0.15963271260261536, 0.1554768681526184, -0.041191551834344864, -0.20560616254806519, -0.028567831963300705, -3.302319049835205, -0.04262419790029526, -0.46936896443367004, -0.49362510442733765, -0.0018784170970320702, -0.015308531932532787, -0.13568967580795288, 0.07273750007152557, 0.8649563193321228, 0.38447293639183044, 1.1323870420455933, 1.0169411897659302, 1.0551955699920654, -0.2448917031288147, -0.08998964726924896, -0.6130927801132202, 0.11980422586202621, 0.0667041540145874, -0.03344042971730232, -0.04964085668325424, -0.06166967377066612, 0.016651576384902, -0.023075638338923454, 0.23351427912712097, -0.1961032897233963, -0.045156385749578476, -0.013108703307807446, -0.10324171930551529, 0.011483993381261826, 0.15928588807582855, -0.10603179037570953, 0.02723834104835987, 0.012694205157458782, -0.032626885920763016, -0.06741882115602493, 0.18439239263534546, -0.14584890007972717, -0.22011399269104004, -0.035373467952013016, -0.1285039186477661, -0.08986346423625946, -0.025378869846463203, -0.058802273124456406, -0.11423984169960022, -0.03238913044333458, -0.05621746927499771, -0.1165274977684021, -0.010190640576183796, -0.05361996218562126, 0.16186361014842987, -0.16419853270053864, -0.03202681615948677, 0.08101678639650345, 0.2895084619522095, -0.13220851123332977, 0.01622627303004265, 0.21491539478302002, 0.38574740290641785, 0.18530528247356415, -0.04676679149270058, -0.04934082552790642, 0.11559713631868362, 0.13937440514564514, -0.011302524246275425, -0.09066063165664673, 0.3723770081996918, 0.03062056005001068, -0.050335176289081573, -0.20140592753887177, -0.11168932169675827, 0.19520030915737152, -0.07907317578792572, -0.10062292963266373, -0.052448172122240067, -0.22133466601371765, -0.05285543203353882, 0.17928649485111237, 0.20542949438095093, -0.049869704991579056, -0.1260470151901245, -0.13864612579345703, -0.18782177567481995, -0.2199724316596985, -0.12397279590368271, -0.001140340231359005, 0.042862143367528915, 0.09329158812761307, 0.0701339989900589, 0.2356724590063095, -0.23086422681808472, -0.1608315259218216, 0.023067444562911987, -0.0318884439766407, 0.005376770626753569, -0.02122676745057106, -0.10520930588245392, -0.02737688645720482, -0.06198692321777344, -0.07178006321191788, 0.03241077810525894, -0.1384461671113968, -0.04882870987057686, 0.034206341952085495, -0.016373690217733383, -0.012946655973792076, -0.04380687698721886, 0.0008590252255089581, 0.16947416961193085, 0.2669869065284729, 0.06685218960046768, 0.3191853165626526, 0.2287396788597107, 0.06600388884544373, 0.3334628641605377, -0.05297723039984703, -0.06206604465842247, -0.2213529646396637, -0.07359163463115692, -0.01178837101906538, 0.1754447966814041, -0.023499293252825737, 0.08073697984218597, -0.02933076210319996, 0.00838396605104208, 0.010414846241474152, -0.34717893600463867, -0.11002680659294128, -0.03332682326436043, -0.1738126426935196, -0.1575407236814499, 0.08598001301288605, 